{"learner":{"attributes":{"scikit_learn":"{\"_estimator_type\": \"regressor\"}"},"feature_names":[],"feature_types":[],"gradient_booster":{"model":{"gbtree_model_param":{"num_parallel_tree":"1","num_trees":"400"},"iteration_indptr":[0,1,2,3,4,5,6,7,8,9,10,11,12,13,14,15,16,17,18,19,20,21,22,23,24,25,26,27,28,29,30,31,32,33,34,35,36,37,38,39,40,41,42,43,44,45,46,47,48,49,50,51,52,53,54,55,56,57,58,59,60,61,62,63,64,65,66,67,68,69,70,71,72,73,74,75,76,77,78,79,80,81,82,83,84,85,86,87,88,89,90,91,92,93,94,95,96,97,98,99,100,101,102,103,104,105,106,107,108,109,110,111,112,113,114,115,116,117,118,119,120,121,122,123,124,125,126,127,128,129,130,131,132,133,134,135,136,137,138,139,140,141,142,143,144,145,146,147,148,149,150,151,152,153,154,155,156,157,158,159,160,161,162,163,164,165,166,167,168,169,170,171,172,173,174,175,176,177,178,179,180,181,182,183,184,185,186,187,188,189,190,191,192,193,194,195,196,197,198,199,200,201,202,203,204,205,206,207,208,209,210,211,212,213,214,215,216,217,218,219,220,221,222,223,224,225,226,227,228,229,230,231,232,233,234,235,236,237,238,239,240,241,242,243,244,245,246,247,248,249,250,251,252,253,254,255,256,257,258,259,260,261,262,263,264,265,266,267,268,269,270,271,272,273,274,275,276,277,278,279,280,281,282,283,284,285,286,287,288,289,290,291,292,293,294,295,296,297,298,299,300,301,302,303,304,305,306,307,308,309,310,311,312,313,314,315,316,317,318,319,320,321,322,323,324,325,326,327,328,329,330,331,332,333,334,335,336,337,338,339,340,341,342,343,344,345,346,347,348,349,350,351,352,353,354,355,356,357,358,359,360,361,362,363,364,365,366,367,368,369,370,371,372,373,374,375,376,377,378,379,380,381,382,383,384,385,386,387,388,389,390,391,392,393,394,395,396,397,398,399,400],"tree_info":[0,0,0,0,0,0,0,0,0,0,0,0,0,0,0,0,0,0,0,0,0,0,0,0,0,0,0,0,0,0,0,0,0,0,0,0,0,0,0,0,0,0,0,0,0,0,0,0,0,0,0,0,0,0,0,0,0,0,0,0,0,0,0,0,0,0,0,0,0,0,0,0,0,0,0,0,0,0,0,0,0,0,0,0,0,0,0,0,0,0,0,0,0,0,0,0,0,0,0,0,0,0,0,0,0,0,0,0,0,0,0,0,0,0,0,0,0,0,0,0,0,0,0,0,0,0,0,0,0,0,0,0,0,0,0,0,0,0,0,0,0,0,0,0,0,0,0,0,0,0,0,0,0,0,0,0,0,0,0,0,0,0,0,0,0,0,0,0,0,0,0,0,0,0,0,0,0,0,0,0,0,0,0,0,0,0,0,0,0,0,0,0,0,0,0,0,0,0,0,0,0,0,0,0,0,0,0,0,0,0,0,0,0,0,0,0,0,0,0,0,0,0,0,0,0,0,0,0,0,0,0,0,0,0,0,0,0,0,0,0,0,0,0,0,0,0,0,0,0,0,0,0,0,0,0,0,0,0,0,0,0,0,0,0,0,0,0,0,0,0,0,0,0,0,0,0,0,0,0,0,0,0,0,0,0,0,0,0,0,0,0,0,0,0,0,0,0,0,0,0,0,0,0,0,0,0,0,0,0,0,0,0,0,0,0,0,0,0,0,0,0,0,0,0,0,0,0,0,0,0,0,0,0,0,0,0,0,0,0,0,0,0,0,0,0,0,0,0,0,0,0,0,0,0,0,0,0,0,0,0,0,0,0,0,0,0,0,0,0,0,0,0,0,0,0,0,0,0,0,0,0,0,0,0,0,0,0,0,0,0,0,0,0,0,0,0,0,0,0,0],"trees":[{"base_weights":[-5.0792262E-2,-2.6974397E0,3.0771069E1,-4.472984E0,5.98697E0,2.332594E1,7.5423615E1,-5.150566E0,-1.653623E0,3.7533436E0,9.928255E0,2.00022E1,3.518725E1,6.611675E1,1.1798877E2,-5.341414E0,-4.2994604E0,-2.3419983E0,5.3889495E-1,2.3918407E0,5.2369614E0,8.341755E0,1.3262551E1,1.5379846E1,2.303565E1,3.249887E1,4.253292E1,5.5822342E1,7.475069E1,1.0063286E2,1.326024E2,-5.4219556E0,-4.849295E0,-4.7097464E0,-3.5957966E0,-3.978304E0,-1.8943667E0,1.5843695E-1,5.8980637E0,1.7329854E0,5.2766466E0,1.3503169E1,4.9786224E0,6.235897E0,1.0361087E1,6.638598E0,1.4448171E1,1.4925401E1,4.38128E1,1.940667E1,2.6826477E1,6.3606472E1,3.1663597E1,3.2603264E1,4.7191906E1,5.867373E1,3.688063E1,6.1622635E1,7.791787E1,1.0367963E2,1.6506279E0,1.358155E2,3.6796436E1,-4.0901136E-1,-4.378995E-1,-3.8892835E-1,1.054958E0,-3.9260688E-1,-3.3399963E-1,-2.9004034E-1,1.2951887E0,-2.62127E-1,-3.8658676E-1,-2.2149722E-1,-1.2091525E-1,7.7151535E-3,2.115172E0,2.0109353E0,3.700799E-1,2.056896E-1,-5.099078E-2,2.9286525E0,3.840966E-1,4.9020233E0,6.949795E-1,3.7186592E0,3.9445686E-1,1.9427879E0,4.7526604E-1,4.3814856E-1,9.5691097E-1,3.5825937E0,4.856155E-1,1.0378896E0,1.49029E0,1.1607153E0,2.292873E0,5.052564E0,1.9244559E-1,2.3955293E0,1.435044E0,1.9095081E0,2.6736495E0,7.926322E0,3.1034496E0,5.6668878E0,2.4952805E0,3.7389832E0,1.8240457E0,2.2491434E0,4.1571527E0,4.789401E0,1.8709259E0,1.3711544E0,3.5985436E0,5.723815E0,3.5599349E0,2.1804192E0,6.2931147E0,8.670759E-1,8.386767E0,1.1049893E1,2.565588E0,3.369822E0,8.326967E-1],"categories":[],"categories_nodes":[],"categories_segments":[],"categories_sizes":[],"default_left":[0,0,0,0,0,0,0,0,0,0,0,0,0,0,0,0,0,0,0,0,0,0,0,0,0,0,0,0,0,0,0,0,0,0,0,0,0,0,0,0,0,0,0,0,0,0,0,0,0,0,0,0,0,0,0,0,0,0,0,0,0,0,0,0,0,0,0,0,0,0,0,0,0,0,0,0,0,0,0,0,0,0,0,0,0,0,0,0,0,0,0,0,0,0,0,0,0,0,0,0,0,0,0,0,0,0,0,0,0,0,0,0,0,0,0,0,0,0,0,0,0,0,0,0,0],"id":0,"left_children":[1,3,5,7,9,11,13,15,17,19,21,23,25,27,29,31,33,35,37,39,41,43,45,47,49,51,53,55,57,59,61,63,65,67,69,71,73,75,77,79,81,83,85,87,89,91,93,95,97,99,101,103,105,107,109,111,113,115,117,119,-1,121,123,-1,-1,-1,-1,-1,-1,-1,-1,-1,-1,-1,-1,-1,-1,-1,-1,-1,-1,-1,-1,-1,-1,-1,-1,-1,-1,-1,-1,-1,-1,-1,-1,-1,-1,-1,-1,-1,-1,-1,-1,-1,-1,-1,-1,-1,-1,-1,-1,-1,-1,-1,-1,-1,-1,-1,-1,-1,-1,-1,-1,-1,-1],"loss_changes":[6.2904635E6,1.0950462E6,2.0254845E6,1.126275E5,1.0608725E5,2.0540425E5,3.37244E5,7.6985E3,1.7246246E4,1.5533E4,2.2953156E4,5.6938375E4,2.118975E4,5.9555E4,2.5969E4,1.5125E3,2.49825E3,6.361953E3,5.567407E3,7.622047E3,7.795617E3,1.25098125E4,1.0930375E4,2.0304344E4,3.3389875E4,1.9837938E4,1.24788125E4,1.57135E4,1.12895E4,1.6141375E4,1.9936875E4,5.06375E2,1.2785469E3,5.61375E2,1.9472656E3,1.1030352E3,2.2825742E3,4.1539736E3,4.313289E3,6.4981133E3,1.0936822E4,2.5005125E4,6.8739375E3,7.5780273E3,1.1721375E4,4.3895996E3,7.093828E3,8.725094E3,1.987286E4,1.9008469E4,2.2664438E4,1.4640469E4,1.29893125E4,1.2789516E4,1.7112844E4,1.06476875E4,6.585668E3,1.0412281E4,9.49775E3,6.5841875E3,0E0,1.42485E4,1.2375635E2,0E0,0E0,0E0,0E0,0E0,0E0,0E0,0E0,0E0,0E0,0E0,0E0,0E0,0E0,0E0,0E0,0E0,0E0,0E0,0E0,0E0,0E0,0E0,0E0,0E0,0E0,0E0,0E0,0E0,0E0,0E0,0E0,0E0,0E0,0E0,0E0,0E0,0E0,0E0,0E0,0E0,0E0,0E0,0E0,0E0,0E0,0E0,0E0,0E0,0E0,0E0,0E0,0E0,0E0,0E0,0E0,0E0,0E0,0E0,0E0,0E0,0E0],"parents":[2147483647,0,0,1,1,2,2,3,3,4,4,5,5,6,6,7,7,8,8,9,9,10,10,11,11,12,12,13,13,14,14,15,15,16,16,17,17,18,18,19,19,20,20,21,21,22,22,23,23,24,24,25,25,26,26,27,27,28,28,29,29,30,30,31,31,32,32,33,33,34,34,35,35,36,36,37,37,38,38,39,39,40,40,41,41,42,42,43,43,44,44,45,45,46,46,47,47,48,48,49,49,50,50,51,51,52,52,53,53,54,54,55,55,56,56,57,57,58,58,59,59,61,61,62,62],"right_children":[2,4,6,8,10,12,14,16,18,20,22,24,26,28,30,32,34,36,38,40,42,44,46,48,50,52,54,56,58,60,62,64,66,68,70,72,74,76,78,80,82,84,86,88,90,92,94,96,98,100,102,104,106,108,110,112,114,116,118,120,-1,122,124,-1,-1,-1,-1,-1,-1,-1,-1,-1,-1,-1,-1,-1,-1,-1,-1,-1,-1,-1,-1,-1,-1,-1,-1,-1,-1,-1,-1,-1,-1,-1,-1,-1,-1,-1,-1,-1,-1,-1,-1,-1,-1,-1,-1,-1,-1,-1,-1,-1,-1,-1,-1,-1,-1,-1,-1,-1,-1,-1,-1,-1,-1],"split_conditions":[6.7878423E0,1.0211651E0,1.3837055E1,6.0822546E-1,5.5771694E0,8.810691E0,3.198609E1,1.0546674E-1,2.4466352E0,1.8926163E0,5E-1,8.039994E0,1.156109E1,2.8525337E1,2.9962973E1,4.0225065E-3,2.9348057E-2,-1.04541425E-2,5.162529E0,1.3984205E0,2.4124458E-2,3.5164836E-1,1.1887478E0,6.156903E0,5.989011E-1,1.4391377E1,5.5494505E-1,1.1873299E1,1.2412293E1,4.5143707E1,8.1383E0,8.7408996E-1,2.5698667E0,1.2791766E0,2.7502656E-1,2.5824177E-1,1.0173055E0,8.0311114E-1,-4.8410878E-2,8.50441E-1,1.081795E0,1.0066466E0,9.157399E-1,2.3245528E0,9.0150106E-1,6.84582E-2,2.1540742E0,5.395963E0,4.5286674E0,8.036362E0,5E-1,2.6310291E0,-9.7252744E-1,8.791209E-2,1.2984931E1,7.0710677E-1,5E-1,5.179408E0,1.3351659E0,-6.339746E-1,1.6506279E0,9.3406594E-1,9.175824E-1,-4.0901136E-1,-4.378995E-1,-3.8892835E-1,1.054958E0,-3.9260688E-1,-3.3399963E-1,-2.9004034E-1,1.2951887E0,-2.62127E-1,-3.8658676E-1,-2.2149722E-1,-1.2091525E-1,7.7151535E-3,2.115172E0,2.0109353E0,3.700799E-1,2.056896E-1,-5.099078E-2,2.9286525E0,3.840966E-1,4.9020233E0,6.949795E-1,3.7186592E0,3.9445686E-1,1.9427879E0,4.7526604E-1,4.3814856E-1,9.5691097E-1,3.5825937E0,4.856155E-1,1.0378896E0,1.49029E0,1.1607153E0,2.292873E0,5.052564E0,1.9244559E-1,2.3955293E0,1.435044E0,1.9095081E0,2.6736495E0,7.926322E0,3.1034496E0,5.6668878E0,2.4952805E0,3.7389832E0,1.8240457E0,2.2491434E0,4.1571527E0,4.789401E0,1.8709259E0,1.3711544E0,3.5985436E0,5.723815E0,3.5599349E0,2.1804192E0,6.2931147E0,8.670759E-1,8.386767E0,1.1049893E1,2.565588E0,3.369822E0,8.326967E-1],"split_indices":[33,44,28,1,14,28,7,12,7,10,80,62,78,19,47,74,77,77,38,52,74,65,33,28,65,23,65,77,78,33,79,53,7,38,39,65,1,36,79,49,44,79,62,57,28,24,79,52,10,57,80,79,65,65,31,80,70,79,79,102,0,65,65,0,0,0,0,0,0,0,0,0,0,0,0,0,0,0,0,0,0,0,0,0,0,0,0,0,0,0,0,0,0,0,0,0,0,0,0,0,0,0,0,0,0,0,0,0,0,0,0,0,0,0,0,0,0,0,0,0,0,0,0,0,0],"split_type":[0,0,0,0,0,0,0,0,0,0,0,0,0,0,0,0,0,0,0,0,0,0,0,0,0,0,0,0,0,0,0,0,0,0,0,0,0,0,0,0,0,0,0,0,0,0,0,0,0,0,0,0,0,0,0,0,0,0,0,0,0,0,0,0,0,0,0,0,0,0,0,0,0,0,0,0,0,0,0,0,0,0,0,0,0,0,0,0,0,0,0,0,0,0,0,0,0,0,0,0,0,0,0,0,0,0,0,0,0,0,0,0,0,0,0,0,0,0,0,0,0,0,0,0,0],"sum_hessian":[7.7111E4,7.1014E4,6.097E3,5.896E4,1.2054E4,5.227E3,8.7E2,4.7535E4,1.1425E4,7.695E3,4.359E3,4.085E3,1.142E3,7.16E2,1.54E2,3.8824E4,8.711E3,8.695E3,2.73E3,4.014E3,3.681E3,2.956E3,1.403E3,1.621E3,2.464E3,8.4E2,3.02E2,3.3E2,3.86E2,7.4E1,8E1,3.3355E4,5.469E3,5.499E3,3.212E3,1.866E3,6.829E3,2.55E3,1.8E2,3.269E3,7.45E2,1.1E2,3.571E3,1.449E3,1.507E3,2.14E2,1.189E3,1.597E3,2.4E1,1.262E3,1.202E3,2E1,8.2E2,9.9E1,2.03E2,2.85E2,4.5E1,7.9E1,3.07E2,7.1E1,3E0,7.7E1,3E0,4.798E3,2.8557E4,5.466E3,3E0,4.008E3,1.491E3,3.208E3,4E0,1.027E3,8.39E2,2.078E3,4.751E3,2.545E3,5E0,1E1,1.7E2,2.415E3,8.54E2,1E1,7.35E2,9E0,1.01E2,3E0,3.568E3,2.2E1,1.427E3,3.73E2,1.134E3,2E0,2.12E2,8.82E2,3.07E2,1.552E3,4.5E1,1.6E1,8E0,1.52E2,1.11E3,8.33E2,3.69E2,7E0,1.3E1,8E0,8.12E2,3.9E1,6E1,4.2E1,1.61E2,2.75E2,1E1,1.4E1,3.1E1,4.8E1,3.1E1,5E0,3.02E2,1E0,7E1,7.5E1,2E0,2E0,1E0],"tree_param":{"num_deleted":"0","num_feature":"124","num_nodes":"125","size_leaf_vector":"1"}},{"base_weights":[-6.3737206E-2,-2.5796087E0,2.712312E1,-4.228845E0,4.694733E0,2.1510977E1,7.458741E1,-4.741857E0,-1.780687E0,2.9162567E0,8.010055E0,1.773466E1,3.2603405E1,6.541782E1,1.1139155E2,-3.7207794E0,-4.8934073E0,-2.2450275E0,2.6085934E-1,9.956015E-1,4.353077E0,4.368202E0,8.978645E0,1.5165535E1,2.1521957E1,3.0820147E1,4.5810978E1,5.612726E1,7.4982254E1,1.1400673E2,5.529774E1,-3.7349155E0,2.644643E1,-4.5446362E0,-4.9975977E0,-3.6656065E0,-1.8344367E0,-1.1217313E-1,7.2107744E0,1.4929801E-1,2.3351245E0,2.6357208E1,4.2335787E0,1.7647828E0,5.710437E0,8.617368E0,2.2775305E1,1.3195834E1,1.9135435E1,1.8767511E1,2.7225044E1,3.3839916E1,2.5477142E1,4.753729E1,1.2745718E1,5.902143E1,3.1400772E1,7.9153015E1,6.168549E1,9.6714615E1,1.2677051E2,5.432759E0,9.3133414E-1,-3.002555E-1,1.0250485E0,3.3852131E0,-2.1164167E-1,-3.7625843E-1,-3.0460003E-1,-4.036306E-1,-3.833142E-1,-2.1043557E-1,-3.4892467E-1,-7.1998425E-2,-1.7657834E-1,-1.7842691E-2,1.1787765E0,1.3346884E0,1.8277767E-1,4.57224E-2,-1.5218025E-1,4.311236E-1,5.1353645E-2,5.441371E0,8.3666974E-1,3.0173692E-1,6.426219E-1,4.5834564E-2,7.226384E-1,3.028057E0,4.147625E-1,4.1604614E0,6.802459E-1,1.3388995E0,3.368683E0,1.1448439E0,7.647367E-1,1.09327035E-2,1.6168183E0,1.1160878E0,1.9585893E0,1.781617E0,2.731442E0,2.3741133E0,3.2603989E0,1.1402844E0,2.3145375E0,3.8716016E0,7.3184125E-2,3.4335256E0,-1.3000333E-2,4.291113E0,5.3633747E0,3.4826596E0,6.0417724E-1,6.4153237E0,2.5489745E0,2.6922724E-1,5.2178116E0,2.2653534E0,7.792453E0,1.0251138E1,1.2384388E0],"categories":[],"categories_nodes":[],"categories_segments":[],"categories_sizes":[],"default_left":[0,0,0,0,0,0,0,0,0,0,0,0,0,0,0,0,0,0,0,0,0,0,0,0,0,0,0,0,0,0,0,0,0,0,0,0,0,0,0,0,0,0,0,0,0,0,0,0,0,0,0,0,0,0,0,0,0,0,0,0,0,0,0,0,0,0,0,0,0,0,0,0,0,0,0,0,0,0,0,0,0,0,0,0,0,0,0,0,0,0,0,0,0,0,0,0,0,0,0,0,0,0,0,0,0,0,0,0,0,0,0,0,0,0,0,0,0,0,0,0,0,0,0],"id":1,"left_children":[1,3,5,7,9,11,13,15,17,19,21,23,25,27,29,31,33,35,37,39,41,43,45,47,49,51,53,55,57,59,61,63,65,67,69,71,73,75,77,79,81,83,85,87,89,91,93,95,97,99,101,103,105,107,109,111,113,115,117,119,121,-1,-1,-1,-1,-1,-1,-1,-1,-1,-1,-1,-1,-1,-1,-1,-1,-1,-1,-1,-1,-1,-1,-1,-1,-1,-1,-1,-1,-1,-1,-1,-1,-1,-1,-1,-1,-1,-1,-1,-1,-1,-1,-1,-1,-1,-1,-1,-1,-1,-1,-1,-1,-1,-1,-1,-1,-1,-1,-1,-1,-1,-1],"loss_changes":[5.2650555E6,8.4528825E5,1.73517E6,7.212606E4,7.675722E4,2.437155E5,2.2523575E5,7.329625E3,9.434811E3,2.338911E4,1.5996625E4,4.20285E4,3.3445875E4,4.501925E4,1.364625E4,2.7175625E3,1.4798125E3,4.7224766E3,4.7840522E3,4.1136416E3,1.2638664E4,3.3340625E3,1.7697844E4,2.0054812E4,2.7089562E4,2.022575E4,9.326219E3,1.8542062E4,1.0091E4,1.62115E4,3.6140508E3,1.9049609E3,1.4969033E3,1.0951562E3,2.893125E2,1.2975371E3,2.1898848E3,2.8869602E3,4.348268E3,1.9284502E3,7.26167E3,1.6509607E4,8.434484E3,2.8274976E3,1.0469396E4,1.6914344E4,9.91993E3,6.9127812E3,1.7537781E4,3.235825E4,1.877775E4,2.2744625E4,1.8043469E4,6.554E3,3.9018184E3,7.3695625E3,8.930166E3,7.365875E3,1.4014344E4,3.04375E1,8.83125E3,0E0,0E0,0E0,0E0,0E0,0E0,0E0,0E0,0E0,0E0,0E0,0E0,0E0,0E0,0E0,0E0,0E0,0E0,0E0,0E0,0E0,0E0,0E0,0E0,0E0,0E0,0E0,0E0,0E0,0E0,0E0,0E0,0E0,0E0,0E0,0E0,0E0,0E0,0E0,0E0,0E0,0E0,0E0,0E0,0E0,0E0,0E0,0E0,0E0,0E0,0E0,0E0,0E0,0E0,0E0,0E0,0E0,0E0,0E0,0E0,0E0,0E0],"parents":[2147483647,0,0,1,1,2,2,3,3,4,4,5,5,6,6,7,7,8,8,9,9,10,10,11,11,12,12,13,13,14,14,15,15,16,16,17,17,18,18,19,19,20,20,21,21,22,22,23,23,24,24,25,25,26,26,27,27,28,28,29,29,30,30,31,31,32,32,33,33,34,34,35,35,36,36,37,37,38,38,39,39,40,40,41,41,42,42,43,43,44,44,45,45,46,46,47,47,48,48,49,49,50,50,51,51,52,52,53,53,54,54,55,55,56,56,57,57,58,58,59,59,60,60],"right_children":[2,4,6,8,10,12,14,16,18,20,22,24,26,28,30,32,34,36,38,40,42,44,46,48,50,52,54,56,58,60,62,64,66,68,70,72,74,76,78,80,82,84,86,88,90,92,94,96,98,100,102,104,106,108,110,112,114,116,118,120,122,-1,-1,-1,-1,-1,-1,-1,-1,-1,-1,-1,-1,-1,-1,-1,-1,-1,-1,-1,-1,-1,-1,-1,-1,-1,-1,-1,-1,-1,-1,-1,-1,-1,-1,-1,-1,-1,-1,-1,-1,-1,-1,-1,-1,-1,-1,-1,-1,-1,-1,-1,-1,-1,-1,-1,-1,-1,-1,-1,-1,-1,-1],"split_conditions":[7.507464E0,5.0448215E-1,1.9366734E1,6.0822546E-1,2.3752162E0,8.343493E0,2.7211916E1,1.0343597E0,2.474698E0,3.153243E0,3.6326113E-1,5.879121E-1,1.3837055E1,1.9825085E1,8.1383E0,2.6085697E-2,2.1346202E0,-1.04541425E-2,5.0354624E0,1.6588984E0,8.94649E-1,5.3846157E-1,8.214669E0,5.8231845E0,5E-1,4.7503853E0,6.964544E0,1.19093636E2,6.1237246E-1,1.4576967E2,9.175824E-1,2.5698667E0,1.1583487E0,9.626768E-3,1.6127802E-3,-2.8867513E-1,-2.8867513E-1,9.747986E0,2.8876626E0,5.8631927E-2,5.135518E-1,3.009023E0,5.606194E0,8.685576E0,5.4395604E-1,6.412397E-2,1.3369267E-1,4.3876213E1,2.4146067E-2,8.76391E0,5.0412607E0,1.40757E1,-6.1237246E-1,1.11982735E2,8.791209E-2,2.173913E-1,3.043478E-1,2.861473E1,-2.3076923E-1,1.029379E0,9.3406594E-1,5.432759E0,9.3133414E-1,-3.002555E-1,1.0250485E0,3.3852131E0,-2.1164167E-1,-3.7625843E-1,-3.0460003E-1,-4.036306E-1,-3.833142E-1,-2.1043557E-1,-3.4892467E-1,-7.1998425E-2,-1.7657834E-1,-1.7842691E-2,1.1787765E0,1.3346884E0,1.8277767E-1,4.57224E-2,-1.5218025E-1,4.311236E-1,5.1353645E-2,5.441371E0,8.3666974E-1,3.0173692E-1,6.426219E-1,4.5834564E-2,7.226384E-1,3.028057E0,4.147625E-1,4.1604614E0,6.802459E-1,1.3388995E0,3.368683E0,1.1448439E0,7.647367E-1,1.09327035E-2,1.6168183E0,1.1160878E0,1.9585893E0,1.781617E0,2.731442E0,2.3741133E0,3.2603989E0,1.1402844E0,2.3145375E0,3.8716016E0,7.3184125E-2,3.4335256E0,-1.3000333E-2,4.291113E0,5.3633747E0,3.4826596E0,6.0417724E-1,6.4153237E0,2.5489745E0,2.6922724E-1,5.2178116E0,2.2653534E0,7.792453E0,1.0251138E1,1.2384388E0],"split_indices":[19,44,62,1,39,28,1,18,7,7,59,65,28,1,79,59,27,77,38,44,8,69,44,28,80,79,79,64,80,64,65,7,7,95,78,83,83,76,1,41,64,79,8,14,65,95,54,64,73,38,78,76,80,64,65,71,71,95,65,79,65,0,0,0,0,0,0,0,0,0,0,0,0,0,0,0,0,0,0,0,0,0,0,0,0,0,0,0,0,0,0,0,0,0,0,0,0,0,0,0,0,0,0,0,0,0,0,0,0,0,0,0,0,0,0,0,0,0,0,0,0,0,0],"split_type":[0,0,0,0,0,0,0,0,0,0,0,0,0,0,0,0,0,0,0,0,0,0,0,0,0,0,0,0,0,0,0,0,0,0,0,0,0,0,0,0,0,0,0,0,0,0,0,0,0,0,0,0,0,0,0,0,0,0,0,0,0,0,0,0,0,0,0,0,0,0,0,0,0,0,0,0,0,0,0,0,0,0,0,0,0,0,0,0,0,0,0,0,0,0,0,0,0,0,0,0,0,0,0,0,0,0,0,0,0,0,0,0,0,0,0,0,0,0,0,0,0,0,0],"sum_hessian":[7.6974E4,7.0455E4,6.519E3,5.7434E4,1.3021E4,5.831E3,6.88E2,4.7483E4,9.951E3,8.476E3,4.545E3,4.352E3,1.479E3,5.53E2,1.35E2,6.14E3,4.1343E4,8.107E3,1.844E3,3.628E3,4.848E3,9.56E2,3.589E3,2.596E3,1.756E3,1.306E3,1.73E2,2.84E2,2.69E2,1.28E2,7E0,6.138E3,2E0,9.52E3,3.1823E4,1.816E3,6.291E3,1.751E3,9.3E1,2.224E3,1.404E3,2.5E1,4.823E3,3.26E2,6.3E2,3.499E3,9E1,1.738E3,8.58E2,1.187E3,5.69E2,8.31E2,4.75E2,1.64E2,9E0,2.53E2,3.1E1,2.01E2,6.8E1,5.8E1,7E1,5E0,2E0,6.132E3,6E0,1E0,1E0,7.83E3,1.69E3,2.5816E4,6.007E3,7.32E2,1.084E3,1.795E3,4.496E3,1.739E3,1.2E1,3.1E1,6.2E1,1.845E3,3.79E2,5E2,9.04E2,6E0,1.9E1,4.302E3,5.21E2,2.81E2,4.5E1,9E0,6.21E2,8E0,3.491E3,7E1,2E1,1.328E3,4.1E2,4.6E1,8.12E2,6.46E2,5.41E2,3.34E2,2.35E2,5.22E2,3.09E2,1.13E2,3.62E2,1.61E2,3E0,2E0,7E0,1.56E2,9.7E1,2E1,1.1E1,1.96E2,5E0,4E0,6.4E1,1E0,5.7E1,6.9E1,1E0],"tree_param":{"num_deleted":"0","num_feature":"124","num_nodes":"123","size_leaf_vector":"1"}},{"base_weights":[1.8323373E-2,-2.3472085E0,2.534915E1,-3.7861726E0,4.941823E0,1.985014E1,6.694134E1,-1.5139898E0,-4.3831577E0,3.2758405E0,8.170283E0,1.6649916E1,3.18185E1,5.7046432E1,1.0309604E2,-2.0897784E0,6.4123845E-1,-4.494648E0,-3.5273297E0,1.8991494E0,4.507595E0,5.746057E0,9.677108E0,1.4237292E1,2.1165806E1,3.4243187E1,2.3684124E1,4.881213E1,6.608897E1,9.1489685E1,1.2327833E2,-2.7336028E0,-1.6444848E0,2.4738787E-1,5.027905E0,-4.113668E0,-4.595452E0,-4.352996E0,-3.083691E0,2.794347E0,-5.3432244E-1,4.6534133E0,-4.6468506E0,2.7499292E1,5.437681E0,8.981646E0,1.8969494E1,1.2144935E1,1.7675627E1,3.7436726E1,2.0181347E1,3.1962664E1,4.8513992E1,7.804264E0,2.779522E1,3.5004616E1,5.3480278E1,1.0922941E-1,6.655323E1,9.533914E1,3.855246E1,1.3095004E2,3.6243786E1,-1.954132E-1,-2.9873976E-1,-1.9587353E-1,-1.07897125E-1,1.7282534E-2,2.9862256E0,9.19352E-1,1.3719828E-1,-3.4696636E-1,-2.939567E-1,3.480259E0,-3.678607E-1,-3.6148793E-1,-3.051153E-1,-2.7043456E-1,-1.5686083E-1,2.200874E-1,3.2045393E0,-9.501965E-2,3.4945256E-1,4.44838E-1,2.3652658E-1,-4.290738E-1,8.316653E-2,1.2642869E0,5.8604116E0,3.134726E-1,7.742305E-1,1.063303E0,6.191445E-1,1.336459E0,2.8769598E0,1.0335103E0,3.9965206E-1,1.1842613E0,2.1763556E0,4.191021E0,2.1939054E0,1.3371359E0,1.9340129E0,2.1049623E0,2.8075838E0,4.745326E0,3.4491036E0,1.1281596E0,8.257133E-3,5.8252583E0,2.1157737E0,4.1073165E0,1.518887E0,4.4911723E0,2.4494781E0,5.2653456E-1,-5.13427E-1,2.806194E0,5.425032E0,6.837083E0,8.405947E0,1.1730736E-1,3.4403944E0,2.8760943E0,1.0568626E1,4.17534E0,1.2177494E0],"categories":[],"categories_nodes":[],"categories_segments":[],"categories_sizes":[],"default_left":[0,0,0,0,0,0,0,0,0,0,0,0,0,0,0,0,0,0,0,0,0,0,0,0,0,0,0,0,0,0,0,0,0,0,0,0,0,0,0,0,0,0,0,0,0,0,0,0,0,0,0,0,0,0,0,0,0,0,0,0,0,0,0,0,0,0,0,0,0,0,0,0,0,0,0,0,0,0,0,0,0,0,0,0,0,0,0,0,0,0,0,0,0,0,0,0,0,0,0,0,0,0,0,0,0,0,0,0,0,0,0,0,0,0,0,0,0,0,0,0,0,0,0,0,0,0,0],"id":2,"left_children":[1,3,5,7,9,11,13,15,17,19,21,23,25,27,29,31,33,35,37,39,41,43,45,47,49,51,53,55,57,59,61,63,65,67,69,71,73,75,77,79,81,83,85,87,89,91,93,95,97,99,101,103,105,107,109,111,113,115,117,119,121,123,125,-1,-1,-1,-1,-1,-1,-1,-1,-1,-1,-1,-1,-1,-1,-1,-1,-1,-1,-1,-1,-1,-1,-1,-1,-1,-1,-1,-1,-1,-1,-1,-1,-1,-1,-1,-1,-1,-1,-1,-1,-1,-1,-1,-1,-1,-1,-1,-1,-1,-1,-1,-1,-1,-1,-1,-1,-1,-1,-1,-1,-1,-1,-1,-1],"loss_changes":[4.622656E6,7.4006675E5,1.50568E6,7.992275E4,6.254197E4,2.2242275E5,2.6922625E5,1.5217941E4,4.436625E3,1.3006281E4,1.44061875E4,4.9761875E4,2.33895E4,4.189625E4,2.7137125E4,2.7698125E3,4.4665654E3,1.5665E3,1.9583594E3,7.90051E3,5.4279062E3,1.0046895E4,1.5598109E4,2.1353562E4,2.484125E4,2.913925E4,1.8388906E4,1.881825E4,8.753375E3,1.8332625E4,3.3312938E4,1.1422773E3,1.3575146E3,2.7521887E3,4.541631E3,8.325625E2,4.606125E3,1.505039E2,1.1613086E3,4.1626074E3,3.1317007E3,6.120078E3,2.66359E2,1.00803955E4,9.625117E3,1.20615E4,5.900133E3,1.0265875E4,3.0580344E4,1.2036641E4,2.049125E4,1.3518625E4,4.9096562E3,2.908493E3,1.1790109E4,2.1007375E4,1.27509375E4,1.6897858E2,8.881625E3,6.340625E2,1.4230654E3,9.70125E2,1.2170854E3,0E0,0E0,0E0,0E0,0E0,0E0,0E0,0E0,0E0,0E0,0E0,0E0,0E0,0E0,0E0,0E0,0E0,0E0,0E0,0E0,0E0,0E0,0E0,0E0,0E0,0E0,0E0,0E0,0E0,0E0,0E0,0E0,0E0,0E0,0E0,0E0,0E0,0E0,0E0,0E0,0E0,0E0,0E0,0E0,0E0,0E0,0E0,0E0,0E0,0E0,0E0,0E0,0E0,0E0,0E0,0E0,0E0,0E0,0E0,0E0,0E0,0E0,0E0,0E0],"parents":[2147483647,0,0,1,1,2,2,3,3,4,4,5,5,6,6,7,7,8,8,9,9,10,10,11,11,12,12,13,13,14,14,15,15,16,16,17,17,18,18,19,19,20,20,21,21,22,22,23,23,24,24,25,25,26,26,27,27,28,28,29,29,30,30,31,31,32,32,33,33,34,34,35,35,36,36,37,37,38,38,39,39,40,40,41,41,42,42,43,43,44,44,45,45,46,46,47,47,48,48,49,49,50,50,51,51,52,52,53,53,54,54,55,55,56,56,57,57,58,58,59,59,60,60,61,61,62,62],"right_children":[2,4,6,8,10,12,14,16,18,20,22,24,26,28,30,32,34,36,38,40,42,44,46,48,50,52,54,56,58,60,62,64,66,68,70,72,74,76,78,80,82,84,86,88,90,92,94,96,98,100,102,104,106,108,110,112,114,116,118,120,122,124,126,-1,-1,-1,-1,-1,-1,-1,-1,-1,-1,-1,-1,-1,-1,-1,-1,-1,-1,-1,-1,-1,-1,-1,-1,-1,-1,-1,-1,-1,-1,-1,-1,-1,-1,-1,-1,-1,-1,-1,-1,-1,-1,-1,-1,-1,-1,-1,-1,-1,-1,-1,-1,-1,-1,-1,-1,-1,-1,-1,-1,-1,-1,-1,-1],"split_conditions":[7.507464E0,1.0211651E0,2.4159296E1,4.7425625E-1,5.5771694E0,8.912256E0,3.198609E1,2.474698E0,2.1463758E-1,1.1876588E0,2.3076923E-1,6.156903E0,8.35732E1,3.1117943E1,3.3105515E1,6.1274236E-1,5.0354624E0,1.9889733E0,-9.495983E-3,1.2895295E-1,3.591921E1,2.1601484E0,8.590224E0,4.327576E0,1.2238592E1,2.0489254E1,-6.1237246E-1,2.8867513E-1,1.1475035E0,6.964544E0,8.2417583E-1,7.414124E-1,-2.2527473E-1,1.0797138E0,7.471244E-2,-6.752426E-3,4.690258E-1,1.7186203E0,6.666667E-1,8.210346E-3,1.5534334E0,1.2313648E-1,3.0186205E0,2.1028569E0,5E-1,5.408826E0,1.11982735E2,5.829033E1,5E-1,3.846154E-1,6.1538464E-1,1.0058687E1,6.043956E-1,7.7377686E1,-9.7252744E-1,4.4696364E0,2.453203E1,2.5945326E1,-6.339746E-1,3.5355338E-1,5.6535442E1,1.0564209E0,9.175824E-1,-1.954132E-1,-2.9873976E-1,-1.9587353E-1,-1.07897125E-1,1.7282534E-2,2.9862256E0,9.19352E-1,1.3719828E-1,-3.4696636E-1,-2.939567E-1,3.480259E0,-3.678607E-1,-3.6148793E-1,-3.051153E-1,-2.7043456E-1,-1.5686083E-1,2.200874E-1,3.2045393E0,-9.501965E-2,3.4945256E-1,4.44838E-1,2.3652658E-1,-4.290738E-1,8.316653E-2,1.2642869E0,5.8604116E0,3.134726E-1,7.742305E-1,1.063303E0,6.191445E-1,1.336459E0,2.8769598E0,1.0335103E0,3.9965206E-1,1.1842613E0,2.1763556E0,4.191021E0,2.1939054E0,1.3371359E0,1.9340129E0,2.1049623E0,2.8075838E0,4.745326E0,3.4491036E0,1.1281596E0,8.257133E-3,5.8252583E0,2.1157737E0,4.1073165E0,1.518887E0,4.4911723E0,2.4494781E0,5.2653456E-1,-5.13427E-1,2.806194E0,5.425032E0,6.837083E0,8.405947E0,1.1730736E-1,3.4403944E0,2.8760943E0,1.0568626E1,4.17534E0,1.2177494E0],"split_indices":[19,44,19,32,14,28,7,7,45,39,65,28,84,19,28,14,38,27,77,26,95,57,14,78,84,57,80,83,79,79,65,2,65,0,77,76,18,38,68,16,78,26,19,57,80,84,72,84,80,65,69,28,65,72,65,79,95,7,82,81,74,79,65,0,0,0,0,0,0,0,0,0,0,0,0,0,0,0,0,0,0,0,0,0,0,0,0,0,0,0,0,0,0,0,0,0,0,0,0,0,0,0,0,0,0,0,0,0,0,0,0,0,0,0,0,0,0,0,0,0,0,0,0,0,0,0,0],"split_type":[0,0,0,0,0,0,0,0,0,0,0,0,0,0,0,0,0,0,0,0,0,0,0,0,0,0,0,0,0,0,0,0,0,0,0,0,0,0,0,0,0,0,0,0,0,0,0,0,0,0,0,0,0,0,0,0,0,0,0,0,0,0,0,0,0,0,0,0,0,0,0,0,0,0,0,0,0,0,0,0,0,0,0,0,0,0,0,0,0,0,0,0,0,0,0,0,0,0,0,0,0,0,0,0,0,0,0,0,0,0,0,0,0,0,0,0,0,0,0,0,0,0,0,0,0,0,0],"sum_hessian":[7.7144E4,7.0556E4,6.588E3,5.8924E4,1.1632E4,5.82E3,7.68E2,1.2261E4,4.6663E4,7.674E3,3.958E3,4.594E3,1.226E3,6.05E2,1.63E2,9.676E3,2.585E3,4.1281E4,5.382E3,3.625E3,4.049E3,1.519E3,2.439E3,2.997E3,1.597E3,9.42E2,2.84E2,3.2E2,2.85E2,1.07E2,5.6E1,3.954E3,5.722E3,2.373E3,2.12E2,8.646E3,3.2635E4,1.878E3,3.504E3,2.65E3,9.75E2,3.986E3,6.3E1,2E1,1.499E3,2.271E3,1.68E2,1.866E3,1.131E3,8.9E1,1.508E3,8.15E2,1.27E2,5.9E1,2.25E2,8.3E1,2.37E2,2E0,2.83E2,9.9E1,8E0,5.1E1,5E0,3.066E3,8.88E2,1.537E3,4.185E3,2.372E3,1E0,7.1E1,1.41E2,5.725E3,2.921E3,1E0,3.2634E4,1.431E3,4.47E2,2.77E3,7.34E2,2.648E3,2E0,8.61E2,1.14E2,2.596E3,1.39E3,5.6E1,7E0,1.7E1,3E0,1.105E3,3.94E2,5.06E2,1.765E3,1.5E2,1.8E1,1.683E3,1.83E2,8.71E2,2.6E2,3.4E1,5.5E1,8.1E2,6.98E2,2.94E2,5.21E2,3.9E1,8.8E1,3.2E1,2.7E1,5E0,2.2E2,4E1,4.3E1,2.11E2,2.6E1,1E0,1E0,1.2E1,2.71E2,5.4E1,4.5E1,1E0,7E0,1E0,5E1,2E0,3E0],"tree_param":{"num_deleted":"0","num_feature":"124","num_nodes":"127","size_leaf_vector":"1"}},{"base_weights":[1.5944097E-2,-2.0868447E0,2.4320953E1,-3.4772148E0,4.6992908E0,1.9181408E1,6.3791412E1,-1.3198838E0,-4.0380855E0,3.0036833E0,7.708645E0,1.5984792E1,3.0301098E1,5.5419785E1,9.766217E1,-1.8575485E0,6.157608E-1,-3.4929717E0,-4.195597E0,1.7723352E0,4.383861E0,5.959564E0,9.909375E0,1.3211832E1,1.9557247E1,3.371515E1,2.105342E1,4.675032E1,6.2904922E1,1.036099E2,7.359879E1,-2.3924854E0,-1.2596846E0,4.8800004E-1,1.2132646E1,-3.5586798E0,-9.215637E-1,-4.2337375E0,-3.8111885E0,2.7494404E0,3.269216E-1,3.377062E1,4.3180346E0,7.163387E0,3.2550557E0,6.5131726E0,1.3218782E1,1.2537009E1,2.3250021E1,2.1344982E1,1.14595585E1,3.1393269E1,4.4532684E1,2.5268627E1,8.408063E0,4.9362133E1,3.1085823E1,5.3313293E1,7.039683E1,8.900683E1,1.1683514E2,8.053999E1,3.1253763E1,-1.9296907E-1,3.850306E0,-1.8284458E-1,-6.6515E-2,3.686486E-2,2.8667765E0,4.0794194E-1,5.711101E0,-3.1380853E-1,-2.6038685E-1,-2.4511161E-1,7.1809836E-2,-3.4264705E-1,-3.2359672E-1,-3.1776014E-1,-2.0986632E-1,1.618453E-1,4.4273475E-1,-2.7332248E-2,3.1886065E-1,-2.6078564E-1,5.729281E0,9.5050436E-1,3.2595396E-1,4.6493375E-1,8.6761266E-1,2.475979E-1,3.3667028E0,4.139411E0,5.052701E-1,1.1819923E0,5.048684E-1,1.0365201E0,-8.223341E-2,2.2047591E0,6.7408353E-1,1.4675317E0,1.9012333E0,1.2149665E0,3.8373047E-1,2.1204927E0,2.793641E0,3.7768466E0,7.128013E-1,7.788299E-1,2.1896973E0,-4.3813426E-2,1.2375976E0,-1.9758101E-1,3.98654E0,1.3978015E0,4.101166E0,5.6032443E0,3.299171E0,5.0401077E0,7.327022E0,7.1929173E0,1.5700544E0,5.1172857E0,9.867862E0,3.0482569E0,6.9219046E0,3.9526548E0,7.859603E-1],"categories":[],"categories_nodes":[],"categories_segments":[],"categories_sizes":[],"default_left":[0,0,0,0,0,0,0,0,0,0,0,0,0,0,0,0,0,0,0,0,0,0,0,0,0,0,0,0,0,0,0,0,0,0,0,0,0,0,0,0,0,0,0,0,0,0,0,0,0,0,0,0,0,0,0,0,0,0,0,0,0,0,0,0,0,0,0,0,0,0,0,0,0,0,0,0,0,0,0,0,0,0,0,0,0,0,0,0,0,0,0,0,0,0,0,0,0,0,0,0,0,0,0,0,0,0,0,0,0,0,0,0,0,0,0,0,0,0,0,0,0,0,0,0,0,0,0],"id":3,"left_children":[1,3,5,7,9,11,13,15,17,19,21,23,25,27,29,31,33,35,37,39,41,43,45,47,49,51,53,55,57,59,61,63,65,67,69,71,73,75,77,79,81,83,85,87,89,91,93,95,97,99,101,103,105,107,109,111,113,115,117,119,121,123,125,-1,-1,-1,-1,-1,-1,-1,-1,-1,-1,-1,-1,-1,-1,-1,-1,-1,-1,-1,-1,-1,-1,-1,-1,-1,-1,-1,-1,-1,-1,-1,-1,-1,-1,-1,-1,-1,-1,-1,-1,-1,-1,-1,-1,-1,-1,-1,-1,-1,-1,-1,-1,-1,-1,-1,-1,-1,-1,-1,-1,-1,-1,-1,-1],"loss_changes":[3.946685E6,6.7060706E5,1.2461635E6,7.1369125E4,6.1647875E4,1.929535E5,1.953435E5,1.2669926E4,4.0050625E3,1.3132602E4,1.6704453E4,4.163525E4,3.761875E4,3.404775E4,1.2268625E4,3.0439062E3,3.8888906E3,1.771E3,5.163125E2,5.772671E3,6.905203E3,7.8848906E3,2.1572266E4,1.5857719E4,2.6479062E4,2.0830625E4,1.7377453E4,9.430125E3,1.8020375E4,1.0651875E4,6.5945156E3,5.1010195E3,1.9755107E3,2.5004763E3,1.1722307E4,1.1194375E3,1.0277405E3,2.90375E2,6.1766406E2,4.922332E3,4.037601E3,1.1444909E4,6.654547E3,8.297828E3,4.5315835E3,8.177379E3,1.0387609E4,1.2737E4,9.286422E3,1.05389375E4,8.272129E3,1.1692625E4,1.4269969E4,7.800578E3,5.321014E3,5.672875E3,1.0366961E4,2.4779938E4,2.0401625E4,1.7502812E3,1.0704375E4,3.3054375E3,1.8488042E3,0E0,0E0,0E0,0E0,0E0,0E0,0E0,0E0,0E0,0E0,0E0,0E0,0E0,0E0,0E0,0E0,0E0,0E0,0E0,0E0,0E0,0E0,0E0,0E0,0E0,0E0,0E0,0E0,0E0,0E0,0E0,0E0,0E0,0E0,0E0,0E0,0E0,0E0,0E0,0E0,0E0,0E0,0E0,0E0,0E0,0E0,0E0,0E0,0E0,0E0,0E0,0E0,0E0,0E0,0E0,0E0,0E0,0E0,0E0,0E0,0E0,0E0,0E0,0E0],"parents":[2147483647,0,0,1,1,2,2,3,3,4,4,5,5,6,6,7,7,8,8,9,9,10,10,11,11,12,12,13,13,14,14,15,15,16,16,17,17,18,18,19,19,20,20,21,21,22,22,23,23,24,24,25,25,26,26,27,27,28,28,29,29,30,30,31,31,32,32,33,33,34,34,35,35,36,36,37,37,38,38,39,39,40,40,41,41,42,42,43,43,44,44,45,45,46,46,47,47,48,48,49,49,50,50,51,51,52,52,53,53,54,54,55,55,56,56,57,57,58,58,59,59,60,60,61,61,62,62],"right_children":[2,4,6,8,10,12,14,16,18,20,22,24,26,28,30,32,34,36,38,40,42,44,46,48,50,52,54,56,58,60,62,64,66,68,70,72,74,76,78,80,82,84,86,88,90,92,94,96,98,100,102,104,106,108,110,112,114,116,118,120,122,124,126,-1,-1,-1,-1,-1,-1,-1,-1,-1,-1,-1,-1,-1,-1,-1,-1,-1,-1,-1,-1,-1,-1,-1,-1,-1,-1,-1,-1,-1,-1,-1,-1,-1,-1,-1,-1,-1,-1,-1,-1,-1,-1,-1,-1,-1,-1,-1,-1,-1,-1,-1,-1,-1,-1,-1,-1,-1,-1,-1,-1,-1,-1,-1,-1],"split_conditions":[7.8146486E0,1.0211651E0,1.9366734E1,4.7425625E-1,5.5771694E0,1.2406219E1,2.7211916E1,2.4466352E0,7.503464E-1,1.9138453E0,4.6153846E-1,8.919599E0,1.0535055E1,3.1117943E1,0E0,4.7345683E-2,2.5429386E-1,1.3077356E0,2.565779E-1,1.2895295E-1,1.0740092E0,8.6863893E-1,1.7559494E0,6.2546577E0,6.678891E1,1.867664E1,4.7826087E-1,6.964544E0,6.4285713E-1,1.4576967E2,7.4178505E0,2.3743616E-1,3.2193147E-2,1.0797138E0,4.7826087E-1,-6.330083E-3,3.3333334E-1,-6.499241E-3,5.9044175E-3,6.1237246E-1,1.0359976E0,2.2044969E0,3.216505E-2,3.2744868E0,8.178978E0,1.2424039E-1,7.3913044E-1,6.0552742E1,1.0852581E1,6.1538464E-1,-1.8301271E-1,1.40757E1,8.045507E1,1.3891732E1,1.5290153E1,7.7401276E0,1.6641853E1,-2.1978023E-2,1.9294687E1,8.1383E0,-6.1237246E-1,-5E-1,-1.6666667E-1,-1.9296907E-1,3.850306E0,-1.8284458E-1,-6.6515E-2,3.686486E-2,2.8667765E0,4.0794194E-1,5.711101E0,-3.1380853E-1,-2.6038685E-1,-2.4511161E-1,7.1809836E-2,-3.4264705E-1,-3.2359672E-1,-3.1776014E-1,-2.0986632E-1,1.618453E-1,4.4273475E-1,-2.7332248E-2,3.1886065E-1,-2.6078564E-1,5.729281E0,9.5050436E-1,3.2595396E-1,4.6493375E-1,8.6761266E-1,2.475979E-1,3.3667028E0,4.139411E0,5.052701E-1,1.1819923E0,5.048684E-1,1.0365201E0,-8.223341E-2,2.2047591E0,6.7408353E-1,1.4675317E0,1.9012333E0,1.2149665E0,3.8373047E-1,2.1204927E0,2.793641E0,3.7768466E0,7.128013E-1,7.788299E-1,2.1896973E0,-4.3813426E-2,1.2375976E0,-1.9758101E-1,3.98654E0,1.3978015E0,4.101166E0,5.6032443E0,3.299171E0,5.0401077E0,7.327022E0,7.1929173E0,1.5700544E0,5.1172857E0,9.867862E0,3.0482569E0,6.9219046E0,3.9526548E0,7.859603E-1],"split_indices":[19,44,62,32,14,62,1,7,53,10,85,62,77,19,82,62,36,1,7,26,62,29,15,15,64,31,91,99,85,73,99,20,64,0,91,76,68,78,76,100,15,10,74,78,7,76,91,64,14,69,101,76,72,19,76,78,78,85,15,99,101,68,68,0,0,0,0,0,0,0,0,0,0,0,0,0,0,0,0,0,0,0,0,0,0,0,0,0,0,0,0,0,0,0,0,0,0,0,0,0,0,0,0,0,0,0,0,0,0,0,0,0,0,0,0,0,0,0,0,0,0,0,0,0,0,0,0],"split_type":[0,0,0,0,0,0,0,0,0,0,0,0,0,0,0,0,0,0,0,0,0,0,0,0,0,0,0,0,0,0,0,0,0,0,0,0,0,0,0,0,0,0,0,0,0,0,0,0,0,0,0,0,0,0,0,0,0,0,0,0,0,0,0,0,0,0,0,0,0,0,0,0,0,0,0,0,0,0,0,0,0,0,0,0,0,0,0,0,0,0,0,0,0,0,0,0,0,0,0,0,0,0,0,0,0,0,0,0,0,0,0,0,0,0,0,0,0,0,0,0,0,0,0,0,0,0,0],"sum_hessian":[7.722E4,7.1072E4,6.148E3,5.8987E4,1.2085E4,5.441E3,7.07E2,1.2172E4,4.6815E4,7.731E3,4.354E3,4.228E3,1.213E3,5.69E2,1.38E2,9.526E3,2.646E3,1.05E4,3.6315E4,4.087E3,3.644E3,2.428E3,1.926E3,2.383E3,1.845E3,8.84E2,3.29E2,2.67E2,3.02E2,1.08E2,3E1,5.026E3,4.5E3,2.618E3,2.8E1,1.0238E4,2.62E2,3.3028E4,3.287E3,2.438E3,1.649E3,7E0,3.637E3,1.679E3,7.49E2,9.52E2,9.74E2,2.235E3,1.48E2,1.51E3,3.35E2,7.31E2,1.53E2,2.46E2,8.3E1,2.27E2,4E1,1.36E2,1.66E2,5.5E1,5.3E1,2.5E1,5E0,5.025E3,1E0,1.324E3,3.176E3,2.617E3,1E0,2.6E1,2E0,4.653E3,5.585E3,1.2E2,1.42E2,2.6166E4,6.862E3,2.893E3,3.94E2,1.935E3,5.03E2,1.395E3,2.54E2,4E0,3E0,1.12E2,3.525E3,1.23E3,4.49E2,7.47E2,2E0,3E0,9.49E2,7.94E2,1.8E2,2.168E3,6.7E1,1.14E2,3.4E1,6.78E2,8.32E2,2.14E2,1.21E2,3.1E2,4.21E2,1.42E2,1.1E1,3E1,2.16E2,3.7E1,4.6E1,2E0,2.25E2,2.5E1,1.5E1,5.5E1,8.1E1,1.26E2,4E1,5.4E1,1E0,7E0,4.6E1,4E0,2.1E1,2E0,3E0],"tree_param":{"num_deleted":"0","num_feature":"124","num_nodes":"127","size_leaf_vector":"1"}},{"base_weights":[1.0087791E-2,-1.8522395E0,2.2920092E1,-3.1902356E0,4.5101547E0,1.7379211E1,5.428775E1,-3.613832E0,-6.868541E-1,3.0824225E0,7.644908E0,1.456644E1,2.5764694E1,4.4521275E1,7.8252396E1,-2.5434146E0,-3.7797449E0,-1.9138844E0,-1.4762831E-2,9.3700635E-1,4.0118604E0,4.4868436E0,9.261693E0,1.21138315E1,1.8159206E1,1.1629954E1,2.7055298E1,4.2057865E1,5.783224E1,6.5464035E1,9.419454E1,-3.3861842E0,-2.2410178E0,-3.3784938E0,-3.8771548E0,-2.20439E0,1.6262097E0,-2.2359028E-1,5.0219555E0,6.021492E-2,3.1176014E0,3.4352444E1,3.9547968E0,1.6705431E0,6.136463E0,8.314083E0,1.4755873E1,1.1625642E1,2.5030373E1,1.5203127E1,2.4682058E1,1.4679642E0,1.6910587E1,3.50709E1,2.519826E1,4.395901E1,2.9851416E1,3.2567936E1,6.701318E1,1.8588354E1,6.703915E1,9.578497E1,2.2799563E0,-2.8283593E-1,-1.6377439E-1,-1.8016447E-1,2.1051764E0,-2.7104804E-1,1.0916697E0,3.5380095E-1,-3.1037208E-1,-7.72873E-2,-2.1165211E-1,-3.4748024E-1,2.2393963E-1,-1.9538088E-2,2.8936017E0,3.2719955E0,3.4674388E-1,1.2992215E-3,3.2266302E0,7.0689046E-1,1.645608E-1,5.017019E0,2.1339238E-2,3.7750086E-1,1.529939E-1,2.4231529E-1,-3.1617764E-1,7.497461E-1,3.5777277E-1,7.9111594E-1,4.4660693E-1,6.6297406E-1,1.3983275E0,5.47831E-1,9.986391E-1,6.2024384E0,1.8127874E0,8.5831237E-1,1.4838525E0,3.2581568E0,1.8255134E0,1.9649371E0,-2.3263901E-1,6.270507E0,1.1883152E0,1.1760819E0,3.1028492E0,1.9918298E0,5.348611E0,2.8961654E0,3.7710567E0,1.905162E0,3.3761716E0,-4.9470112E-1,2.8732338E0,1.7042909E0,5.562973E0,3.9471881E0,-7.2978866E-1,4.4048505E0,5.8146243E0,6.464931E0,8.347884E0],"categories":[],"categories_nodes":[],"categories_segments":[],"categories_sizes":[],"default_left":[0,0,0,0,0,0,0,0,0,0,0,0,0,0,0,0,0,0,0,0,0,0,0,0,0,0,0,0,0,0,0,0,0,0,0,0,0,0,0,0,0,0,0,0,0,0,0,0,0,0,0,0,0,0,0,0,0,0,0,0,0,0,0,0,0,0,0,0,0,0,0,0,0,0,0,0,0,0,0,0,0,0,0,0,0,0,0,0,0,0,0,0,0,0,0,0,0,0,0,0,0,0,0,0,0,0,0,0,0,0,0,0,0,0,0,0,0,0,0,0,0,0,0,0,0],"id":4,"left_children":[1,3,5,7,9,11,13,15,17,19,21,23,25,27,29,31,33,35,37,39,41,43,45,47,49,51,53,55,57,59,61,63,65,67,69,71,73,75,77,79,81,83,85,87,89,91,93,95,97,99,101,103,105,107,109,111,113,115,117,119,121,123,-1,-1,-1,-1,-1,-1,-1,-1,-1,-1,-1,-1,-1,-1,-1,-1,-1,-1,-1,-1,-1,-1,-1,-1,-1,-1,-1,-1,-1,-1,-1,-1,-1,-1,-1,-1,-1,-1,-1,-1,-1,-1,-1,-1,-1,-1,-1,-1,-1,-1,-1,-1,-1,-1,-1,-1,-1,-1,-1,-1,-1,-1,-1],"loss_changes":[3.2831852E6,6.058405E5,1.00451525E6,6.2351562E4,5.5321562E4,1.15622875E5,1.9967175E5,8.9218125E3,7.018792E3,1.6941516E4,1.9713203E4,3.2251E4,2.2196438E4,1.7865E4,4.4802125E4,1.7131641E3,1.6886875E3,3.1011777E3,5.786051E3,4.913465E3,1.0129242E4,6.0850664E3,1.3195141E4,1.3537406E4,2.8412875E4,5.609658E3,1.5936625E4,1.089425E4,1.9620812E4,9.238375E3,8.658875E3,3.487246E2,1.6264434E3,1.4385156E3,7.42875E2,1.5186592E3,1.6157737E3,3.975683E3,5.225841E3,3.2473157E3,4.4517466E3,1.061676E4,9.226383E3,3.7240156E3,4.411174E3,9.339797E3,6.4610234E3,8.578E3,8.074961E3,1.5216391E4,1.29414375E4,3.8105393E3,7.558967E3,1.5320156E4,9.86075E3,9.464875E3,4.512414E3,3.7245527E3,6.36375E3,5.5629717E3,5.259625E3,5.1593125E3,0E0,0E0,0E0,0E0,0E0,0E0,0E0,0E0,0E0,0E0,0E0,0E0,0E0,0E0,0E0,0E0,0E0,0E0,0E0,0E0,0E0,0E0,0E0,0E0,0E0,0E0,0E0,0E0,0E0,0E0,0E0,0E0,0E0,0E0,0E0,0E0,0E0,0E0,0E0,0E0,0E0,0E0,0E0,0E0,0E0,0E0,0E0,0E0,0E0,0E0,0E0,0E0,0E0,0E0,0E0,0E0,0E0,0E0,0E0,0E0,0E0,0E0,0E0],"parents":[2147483647,0,0,1,1,2,2,3,3,4,4,5,5,6,6,7,7,8,8,9,9,10,10,11,11,12,12,13,13,14,14,15,15,16,16,17,17,18,18,19,19,20,20,21,21,22,22,23,23,24,24,25,25,26,26,27,27,28,28,29,29,30,30,31,31,32,32,33,33,34,34,35,35,36,36,37,37,38,38,39,39,40,40,41,41,42,42,43,43,44,44,45,45,46,46,47,47,48,48,49,49,50,50,51,51,52,52,53,53,54,54,55,55,56,56,57,57,58,58,59,59,60,60,61,61],"right_children":[2,4,6,8,10,12,14,16,18,20,22,24,26,28,30,32,34,36,38,40,42,44,46,48,50,52,54,56,58,60,62,64,66,68,70,72,74,76,78,80,82,84,86,88,90,92,94,96,98,100,102,104,106,108,110,112,114,116,118,120,122,124,-1,-1,-1,-1,-1,-1,-1,-1,-1,-1,-1,-1,-1,-1,-1,-1,-1,-1,-1,-1,-1,-1,-1,-1,-1,-1,-1,-1,-1,-1,-1,-1,-1,-1,-1,-1,-1,-1,-1,-1,-1,-1,-1,-1,-1,-1,-1,-1,-1,-1,-1,-1,-1,-1,-1,-1,-1,-1,-1,-1,-1,-1,-1],"split_conditions":[4.064446E0,1.0211651E0,1.3837055E1,1.0173055E0,2.6269886E0,9.484694E0,1.7900002E1,7.878654E-1,2.4146067E-2,3.153243E0,2.3076923E-1,5.989011E-1,1.4917832E1,2.3774847E1,4.6510548E1,-9.495983E-3,7.6873565E-1,8.333333E-1,5.0354624E0,1.870319E-1,3.781035E-1,-3.5355338E-1,6.2427926E0,7.6027117E0,5E-1,1.2487189E1,-4.7826087E-1,1.1521448E1,0E0,1.9253283E0,2.3491936E1,2.0846447E-1,2.9004973E-1,2.5602865E0,1.1598648E0,8.817766E-1,-1.2087912E-1,5.829033E1,2.723514E0,2.061896E-3,2.614472E0,7.1305814E0,1.5450436E-1,6.0552742E1,3.2096155E0,3.9130434E-1,-1.6666667E-1,-6.1237246E-1,8.22061E0,5.4687314E0,1.020089E1,9.823773E0,1.6422654E0,1.7789873E1,1.3204284E1,5.3296703E-1,1.0561695E2,2.766662E0,8.812065E0,3.9557842E1,-3.6602542E-1,-8.6595606E-17,2.2799563E0,-2.8283593E-1,-1.6377439E-1,-1.8016447E-1,2.1051764E0,-2.7104804E-1,1.0916697E0,3.5380095E-1,-3.1037208E-1,-7.72873E-2,-2.1165211E-1,-3.4748024E-1,2.2393963E-1,-1.9538088E-2,2.8936017E0,3.2719955E0,3.4674388E-1,1.2992215E-3,3.2266302E0,7.0689046E-1,1.645608E-1,5.017019E0,2.1339238E-2,3.7750086E-1,1.529939E-1,2.4231529E-1,-3.1617764E-1,7.497461E-1,3.5777277E-1,7.9111594E-1,4.4660693E-1,6.6297406E-1,1.3983275E0,5.47831E-1,9.986391E-1,6.2024384E0,1.8127874E0,8.5831237E-1,1.4838525E0,3.2581568E0,1.8255134E0,1.9649371E0,-2.3263901E-1,6.270507E0,1.1883152E0,1.1760819E0,3.1028492E0,1.9918298E0,5.348611E0,2.8961654E0,3.7710567E0,1.905162E0,3.3761716E0,-4.9470112E-1,2.8732338E0,1.7042909E0,5.562973E0,3.9471881E0,-7.2978866E-1,4.4048505E0,5.8146243E0,6.464931E0,8.347884E0],"split_indices":[28,44,28,1,31,1,15,32,84,7,65,65,72,98,19,77,53,88,38,15,8,80,7,15,80,33,91,77,88,79,75,5,42,13,27,27,65,72,45,22,14,77,26,72,39,91,88,80,45,10,84,45,75,74,10,65,93,75,15,19,82,81,0,0,0,0,0,0,0,0,0,0,0,0,0,0,0,0,0,0,0,0,0,0,0,0,0,0,0,0,0,0,0,0,0,0,0,0,0,0,0,0,0,0,0,0,0,0,0,0,0,0,0,0,0,0,0,0,0,0,0,0,0,0,0],"split_type":[0,0,0,0,0,0,0,0,0,0,0,0,0,0,0,0,0,0,0,0,0,0,0,0,0,0,0,0,0,0,0,0,0,0,0,0,0,0,0,0,0,0,0,0,0,0,0,0,0,0,0,0,0,0,0,0,0,0,0,0,0,0,0,0,0,0,0,0,0,0,0,0,0,0,0,0,0,0,0,0,0,0,0,0,0,0,0,0,0,0,0,0,0,0,0,0,0,0,0,0,0,0,0,0,0,0,0,0,0,0,0,0,0,0,0,0,0,0,0,0,0,0,0,0,0],"sum_hessian":[7.6949E4,7.1165E4,5.784E3,5.88E4,1.2365E4,4.917E3,8.67E2,5.029E4,8.51E3,8.497E3,3.868E3,3.684E3,1.233E3,6.18E2,2.49E2,6.751E3,4.3539E4,3.011E3,5.499E3,2.569E3,5.928E3,1.311E3,2.557E3,2.192E3,1.492E3,1.04E2,1.129E3,5.25E2,9.3E1,1.41E2,1.08E2,1.78E3,4.971E3,8.512E3,3.5027E4,2.783E3,2.28E2,5.281E3,2.18E2,1.833E3,7.36E2,1E1,5.918E3,4.85E2,8.26E2,2.183E3,3.74E2,2.114E3,7.8E1,1.029E3,4.63E2,3.6E1,6.8E1,2.09E2,9.2E2,4.52E2,7.3E1,2.6E1,6.7E1,5E0,1.36E2,1.05E2,3E0,1.6E3,1.8E2,4.97E3,1E0,8.508E3,4E0,1E1,3.5017E4,7.32E2,2.051E3,3.7E1,1.91E2,5.279E3,2E0,3E0,2.15E2,1.832E3,1E0,1.14E2,6.22E2,5E0,5E0,4.306E3,1.612E3,3.91E2,9.4E1,2.79E2,5.47E2,1.383E3,8E2,1.12E2,2.62E2,3.23E2,1.791E3,2E0,7.6E1,4.42E2,5.87E2,4.6E1,4.17E2,5E0,3.1E1,1E0,6.7E1,3.3E1,1.76E2,9.15E2,5E0,1.35E2,3.17E2,5.1E1,2.2E1,2E0,2.4E1,4E0,6.3E1,2E0,3E0,4.7E1,8.9E1,4.2E1,6.3E1],"tree_param":{"num_deleted":"0","num_feature":"124","num_nodes":"125","size_leaf_vector":"1"}},{"base_weights":[-1.110667E-2,-1.8038329E0,2.0140219E1,-2.9487245E0,3.8064954E0,1.5796503E1,5.134368E1,-3.3931577E0,-1.086202E0,2.4017003E0,6.356693E0,1.2903582E1,2.4260794E1,4.4415768E1,8.2749664E1,-2.3808117E0,-3.4941804E0,-1.6694453E0,-4.5830302E-2,2.9367075E0,3.8431525E-1,5.017E0,9.130914E0,1.0815958E1,1.6067265E1,2.7217543E1,1.7751907E1,4.0256805E1,5.3551E1,8.844739E1,5.7206924E1,-2.9774399E0,-2.004091E0,-3.4964037E0,2.1393639E1,-1.6814824E0,3.4317226E0,-1.6535008E-1,7.6928506E0,2.9052417E0,4.0857166E1,-1.6218638E-1,5.2538342E0,3.646174E1,4.905689E0,2.226622E1,8.561962E0,8.999231E0,1.3307103E1,1.3776177E1,2.1303978E1,2.3122663E1,3.263142E1,1.1008396E0,2.1088163E1,6.3402786E1,3.917414E1,8.765098E0,5.5171936E1,7.420307E1,1.02635445E2,6.2227306E1,1.1527803E1,-2.511301E-1,-1.8932164E-2,-1.9482891E-1,-8.5313186E-2,-2.7982527E-1,1.4405943E0,-5.253048E-2,2.3170085E0,-1.6779372E-1,-9.093702E-2,-1.3555597E-1,1.9042708E-2,2.769331E-1,2.1596377E0,1.8137307E-1,3.5336795E-1,3.9237447E0,3.2394394E-1,1.5729889E0,-2.168607E-2,2.1624166E-1,1.3245894E0,7.5819784E-1,4.229734E0,2.608286E-1,5.3398865E-1,7.0616016E0,1.3571769E0,1.393413E0,6.3433117E-1,6.8995637E-1,2.2104669E0,3.7761142E0,1.037446E0,8.61792E-1,1.5463009E0,1.015166E0,1.9209843E0,1.2679116E0,2.1019518E0,1.9567828E0,2.8962502E0,3.3224554E0,-4.605929E-2,8.419676E-1,2.05679E0,-5.422006E-1,5.434377E0,3.2632003E0,1.9186708E0,2.093296E0,-5.5270433E-1,5.3260627E0,4.016137E0,-5.851433E-1,6.0587726E0,3.6357665E0,8.71753E0,4.0288115E-1,5.3585205E0,1.4389873E0,2.7030745E-1],"categories":[],"categories_nodes":[],"categories_segments":[],"categories_sizes":[],"default_left":[0,0,0,0,0,0,0,0,0,0,0,0,0,0,0,0,0,0,0,0,0,0,0,0,0,0,0,0,0,0,0,0,0,0,0,0,0,0,0,0,0,0,0,0,0,0,0,0,0,0,0,0,0,0,0,0,0,0,0,0,0,0,0,0,0,0,0,0,0,0,0,0,0,0,0,0,0,0,0,0,0,0,0,0,0,0,0,0,0,0,0,0,0,0,0,0,0,0,0,0,0,0,0,0,0,0,0,0,0,0,0,0,0,0,0,0,0,0,0,0,0,0,0,0,0],"id":5,"left_children":[1,3,5,7,9,11,13,15,17,19,21,23,25,27,29,31,33,35,37,39,41,43,45,47,49,51,53,55,57,59,61,63,65,67,69,71,-1,73,75,77,79,81,83,85,87,89,91,93,95,97,99,101,103,105,107,109,111,113,115,117,119,121,123,-1,-1,-1,-1,-1,-1,-1,-1,-1,-1,-1,-1,-1,-1,-1,-1,-1,-1,-1,-1,-1,-1,-1,-1,-1,-1,-1,-1,-1,-1,-1,-1,-1,-1,-1,-1,-1,-1,-1,-1,-1,-1,-1,-1,-1,-1,-1,-1,-1,-1,-1,-1,-1,-1,-1,-1,-1,-1,-1,-1,-1,-1],"loss_changes":[2.788082E6,4.552375E5,8.5376175E5,4.871947E4,4.301778E4,1.3524438E5,1.6385975E5,4.8516875E3,6.8815273E3,8.360328E3,1.5809203E4,2.7089938E4,2.6633312E4,2.189375E4,1.50240625E4,9.6388086E2,2.465625E3,3.9705156E3,3.770343E3,7.1872344E3,4.3253022E3,9.898109E3,1.0182375E4,1.11493125E4,1.9370844E4,2.0683E4,2.4586406E4,8.51725E3,1.36724375E4,1.4817125E4,5.7038047E3,7.384297E2,1.0682334E3,1.375125E3,6.8660876E2,1.6440273E3,0E0,2.4762957E3,4.970276E3,5.8928867E3,1.3086113E3,3.1613267E3,4.683891E3,3.9270117E3,8.33243E3,1.8447945E4,7.3265312E3,9.837727E3,1.1430594E4,1.8855562E4,1.1290594E4,1.22840625E4,1.1197781E4,5.107704E3,1.7744656E4,6.179008E3,9.3801875E3,2.3627227E3,7.313625E3,7.920125E3,1.42449375E4,6.4601484E3,1.4977765E2,0E0,0E0,0E0,0E0,0E0,0E0,0E0,0E0,0E0,0E0,0E0,0E0,0E0,0E0,0E0,0E0,0E0,0E0,0E0,0E0,0E0,0E0,0E0,0E0,0E0,0E0,0E0,0E0,0E0,0E0,0E0,0E0,0E0,0E0,0E0,0E0,0E0,0E0,0E0,0E0,0E0,0E0,0E0,0E0,0E0,0E0,0E0,0E0,0E0,0E0,0E0,0E0,0E0,0E0,0E0,0E0,0E0,0E0,0E0,0E0,0E0,0E0],"parents":[2147483647,0,0,1,1,2,2,3,3,4,4,5,5,6,6,7,7,8,8,9,9,10,10,11,11,12,12,13,13,14,14,15,15,16,16,17,17,18,18,19,19,20,20,21,21,22,22,23,23,24,24,25,25,26,26,27,27,28,28,29,29,30,30,31,31,32,32,33,33,34,34,35,35,37,37,38,38,39,39,40,40,41,41,42,42,43,43,44,44,45,45,46,46,47,47,48,48,49,49,50,50,51,51,52,52,53,53,54,54,55,55,56,56,57,57,58,58,59,59,60,60,61,61,62,62],"right_children":[2,4,6,8,10,12,14,16,18,20,22,24,26,28,30,32,34,36,38,40,42,44,46,48,50,52,54,56,58,60,62,64,66,68,70,72,-1,74,76,78,80,82,84,86,88,90,92,94,96,98,100,102,104,106,108,110,112,114,116,118,120,122,124,-1,-1,-1,-1,-1,-1,-1,-1,-1,-1,-1,-1,-1,-1,-1,-1,-1,-1,-1,-1,-1,-1,-1,-1,-1,-1,-1,-1,-1,-1,-1,-1,-1,-1,-1,-1,-1,-1,-1,-1,-1,-1,-1,-1,-1,-1,-1,-1,-1,-1,-1,-1,-1,-1,-1,-1,-1,-1,-1,-1,-1,-1],"split_conditions":[6.68535E0,1.0211651E0,2.4159296E1,7.3747957E-1,5.5771694E0,9.484694E0,4.0222942E1,7.878654E-1,1.7177646E0,8.50441E-1,5E-1,5.989011E-1,1.0221835E1,3.488606E1,0E0,-4.6662427E-2,2.9392042E0,5.070911E0,4.815127E0,3.368251E-1,2.530851E0,3.7496556E-2,4.961392E0,5.5974774E0,5E-1,5.2691586E1,-6.1237246E-1,-5E-1,-6.339746E-1,1.4576967E2,6.830127E-1,2.4509263E0,3.846154E-1,8.6056507E-1,1.2553183E0,4.347826E-2,3.4317226E0,3.2193147E-2,2.4725275E-1,1.1210858E0,5.4399395E-1,1.8761383E-2,4.6143723E0,2.5686615E0,3.846154E-1,0E0,4.7117516E-2,4.28444E1,4.526026E0,1.0296653E1,3.3533204E0,-1.8301271E-1,5.2747256E-1,9.731261E0,1.4687072E1,1.9787697E1,8.333333E-1,4.6721024E1,7.4248405E1,-6.830127E-1,-6.1237246E-1,-5E-1,2.282178E1,-2.511301E-1,-1.8932164E-2,-1.9482891E-1,-8.5313186E-2,-2.7982527E-1,1.4405943E0,-5.253048E-2,2.3170085E0,-1.6779372E-1,-9.093702E-2,-1.3555597E-1,1.9042708E-2,2.769331E-1,2.1596377E0,1.8137307E-1,3.5336795E-1,3.9237447E0,3.2394394E-1,1.5729889E0,-2.168607E-2,2.1624166E-1,1.3245894E0,7.5819784E-1,4.229734E0,2.608286E-1,5.3398865E-1,7.0616016E0,1.3571769E0,1.393413E0,6.3433117E-1,6.8995637E-1,2.2104669E0,3.7761142E0,1.037446E0,8.61792E-1,1.5463009E0,1.015166E0,1.9209843E0,1.2679116E0,2.1019518E0,1.9567828E0,2.8962502E0,3.3224554E0,-4.605929E-2,8.419676E-1,2.05679E0,-5.422006E-1,5.434377E0,3.2632003E0,1.9186708E0,2.093296E0,-5.5270433E-1,5.3260627E0,4.016137E0,-5.851433E-1,6.0587726E0,3.6357665E0,8.71753E0,4.0288115E-1,5.3585205E0,1.4389873E0,2.7030745E-1],"split_indices":[33,44,19,45,14,1,50,32,1,49,100,65,77,19,82,79,38,45,12,32,31,74,8,24,100,73,100,103,82,73,100,38,69,14,1,71,0,64,65,52,23,74,45,76,65,70,79,74,23,12,78,81,65,1,33,50,68,74,73,100,81,81,10,0,0,0,0,0,0,0,0,0,0,0,0,0,0,0,0,0,0,0,0,0,0,0,0,0,0,0,0,0,0,0,0,0,0,0,0,0,0,0,0,0,0,0,0,0,0,0,0,0,0,0,0,0,0,0,0,0,0,0,0,0,0],"split_type":[0,0,0,0,0,0,0,0,0,0,0,0,0,0,0,0,0,0,0,0,0,0,0,0,0,0,0,0,0,0,0,0,0,0,0,0,0,0,0,0,0,0,0,0,0,0,0,0,0,0,0,0,0,0,0,0,0,0,0,0,0,0,0,0,0,0,0,0,0,0,0,0,0,0,0,0,0,0,0,0,0,0,0,0,0,0,0,0,0,0,0,0,0,0,0,0,0,0,0,0,0,0,0,0,0,0,0,0,0,0,0,0,0,0,0,0,0,0,0,0,0,0,0,0,0],"sum_hessian":[7.7175E4,7.0871E4,6.304E3,5.886E4,1.2011E4,5.535E3,7.69E2,4.752E4,1.134E4,7.746E3,4.265E3,4.127E3,1.408E3,6.32E2,1.37E2,4.314E3,4.3206E4,7.266E3,4.074E3,6.122E3,1.624E3,2.878E3,1.387E3,2.489E3,1.638E3,9.66E2,4.42E2,4.38E2,1.94E2,1.1E2,2.7E1,1.667E3,2.647E3,4.3203E4,3E0,7.265E3,1E0,4.013E3,6.1E1,6.118E3,4E0,1.461E3,1.63E2,9E0,2.869E3,5.6E1,1.331E3,1.442E3,1.047E3,1.142E3,4.96E2,5.53E2,4.13E2,7.4E1,3.68E2,1.7E1,4.21E2,7E0,1.87E2,5.8E1,5.2E1,2.4E1,3E0,1.574E3,9.3E1,1.812E3,8.35E2,4.3201E4,2E0,1E0,2E0,4.118E3,3.147E3,8.37E2,3.176E3,5.1E1,1E1,4.304E3,1.814E3,3E0,1E0,7E0,1.454E3,1.34E2,2.9E1,4E0,5E0,1.488E3,1.381E3,3E0,5.3E1,8.7E1,1.244E3,1.415E3,2.7E1,9E0,1.038E3,7.43E2,3.99E2,1.2E2,3.76E2,1.69E2,3.84E2,1.28E2,2.85E2,2E0,7.2E1,1.13E2,2.55E2,1E0,1.6E1,3.79E2,4.2E1,3E0,4E0,5.3E1,1.34E2,1E0,5.7E1,6E0,4.6E1,2E0,2.2E1,1E0,2E0],"tree_param":{"num_deleted":"0","num_feature":"124","num_nodes":"125","size_leaf_vector":"1"}},{"base_weights":[2.548795E-2,-1.6718118E0,1.8149267E1,-2.7808907E0,3.1210597E0,1.3711494E1,4.397862E1,-3.1253574E0,-1.0390166E0,1.6458985E0,5.283592E0,1.1902339E1,2.192097E1,3.691612E1,7.129313E1,-2.403645E0,-3.2360406E0,-2.4614098E0,-7.12555E-1,-2.1931933E-2,2.6698718E0,4.113573E0,8.534226E0,9.961952E0,1.49805355E1,1.6681093E1,2.4015596E1,3.1385298E1,4.3564632E1,6.236657E1,8.672502E1,-2.4211507E0,2.605759E1,-3.290779E0,-2.8500607E0,-2.7318366E0,-1.1457771E0,-9.934668E-1,1.4496211E0,-2.9985383E-1,5.3778424E0,4.7184816E-1,3.344433E0,5.6273556E0,2.1647816E0,7.043126E0,1.2370059E1,9.697349E0,3.089853E1,7.9040523E0,1.5984468E1,1.8112211E1,-6.26896E0,2.1424173E1,3.1518505E1,3.247982E1,7.5972233E0,1.920297E1,4.4913166E1,5.5884045E1,7.953137E1,8.972278E1,2.9809658E1,-2.2005993E-1,-1.5878469E-1,2.8986511E0,-1.7876212E-1,-2.649468E-1,-2.2890976E-1,-2.3091024E-1,1.405181E-1,-1.6209152E-1,-2.5442383E-1,-1.7277923E-1,1.2187852E-1,-8.0874175E-2,7.9213333E-1,2.085623E0,1.0242384E-1,1.9244304E-2,-1.7132911E-1,2.9701295E-1,2.4398472E0,8.8412315E-1,8.4788486E-4,2.296474E-1,7.298007E-1,4.463338E-1,4.51529E0,1.6176564E-1,2.613302E0,5.5178505E-1,4.361173E0,2.7308567E0,8.997013E-1,2.6386287E0,7.580994E-1,3.096403E0,-4.685432E-1,1.7253892E0,3.7800148E-1,1.1195662E0,1.6703563E0,2.4439936E0,1.240255E0,-8.6592275E-1,1.9482438E-1,2.5708969E0,1.55337E0,1.7250928E-1,2.71391E0,2.782813E0,1.5501082E0,-1.0498996E0,1.2303303E0,2.7798188E0,-6.7661154E-1,3.6567953E0,9.203592E-1,5.7497516E0,3.895245E0,1.5100389E0,6.4669604E0,2.121502E0,7.384924E0,3.3725944E-1,2.812336E0],"categories":[],"categories_nodes":[],"categories_segments":[],"categories_sizes":[],"default_left":[0,0,0,0,0,0,0,0,0,0,0,0,0,0,0,0,0,0,0,0,0,0,0,0,0,0,0,0,0,0,0,0,0,0,0,0,0,0,0,0,0,0,0,0,0,0,0,0,0,0,0,0,0,0,0,0,0,0,0,0,0,0,0,0,0,0,0,0,0,0,0,0,0,0,0,0,0,0,0,0,0,0,0,0,0,0,0,0,0,0,0,0,0,0,0,0,0,0,0,0,0,0,0,0,0,0,0,0,0,0,0,0,0,0,0,0,0,0,0,0,0,0,0,0,0,0,0],"id":6,"left_children":[1,3,5,7,9,11,13,15,17,19,21,23,25,27,29,31,33,35,37,39,41,43,45,47,49,51,53,55,57,59,61,63,65,67,69,71,73,75,77,79,81,83,85,87,89,91,93,95,97,99,101,103,105,107,109,111,113,115,117,119,121,123,125,-1,-1,-1,-1,-1,-1,-1,-1,-1,-1,-1,-1,-1,-1,-1,-1,-1,-1,-1,-1,-1,-1,-1,-1,-1,-1,-1,-1,-1,-1,-1,-1,-1,-1,-1,-1,-1,-1,-1,-1,-1,-1,-1,-1,-1,-1,-1,-1,-1,-1,-1,-1,-1,-1,-1,-1,-1,-1,-1,-1,-1,-1,-1,-1],"loss_changes":[2.3752475E6,3.7531112E5,7.572965E5,3.4399344E4,4.231733E4,8.3564875E4,1.8429675E5,3.8160938E3,4.3947764E3,1.3473004E4,2.0426672E4,2.7487312E4,1.07725E4,2.70205E4,2.18665E4,3.2363398E3,8.674375E2,6.255381E2,4.6794863E3,4.5067607E3,7.2458633E3,1.1664094E4,8.0518906E3,1.5439219E4,1.25690625E4,9.769758E3,1.34210625E4,1.081875E4,1.057025E4,9.9094375E3,9.268625E3,9.1008594E2,1.2325149E3,3.1909375E2,8.6866016E2,4.5719238E2,8.23369E2,1.306831E3,3.6602212E3,2.8430952E3,6.035743E3,5.6068633E3,1.0213508E4,5.137586E3,7.4731743E3,6.732828E3,9.326746E3,1.41395625E4,1.0269262E4,9.627786E3,1.49419375E4,8.515109E3,7.400342E2,1.1028781E4,1.2922219E4,1.1590469E4,3.4268042E3,8.893439E3,8.2318125E3,7.6563125E3,1.0875781E3,8.351E3,5.357373E2,0E0,0E0,0E0,0E0,0E0,0E0,0E0,0E0,0E0,0E0,0E0,0E0,0E0,0E0,0E0,0E0,0E0,0E0,0E0,0E0,0E0,0E0,0E0,0E0,0E0,0E0,0E0,0E0,0E0,0E0,0E0,0E0,0E0,0E0,0E0,0E0,0E0,0E0,0E0,0E0,0E0,0E0,0E0,0E0,0E0,0E0,0E0,0E0,0E0,0E0,0E0,0E0,0E0,0E0,0E0,0E0,0E0,0E0,0E0,0E0,0E0,0E0,0E0,0E0],"parents":[2147483647,0,0,1,1,2,2,3,3,4,4,5,5,6,6,7,7,8,8,9,9,10,10,11,11,12,12,13,13,14,14,15,15,16,16,17,17,18,18,19,19,20,20,21,21,22,22,23,23,24,24,25,25,26,26,27,27,28,28,29,29,30,30,31,31,32,32,33,33,34,34,35,35,36,36,37,37,38,38,39,39,40,40,41,41,42,42,43,43,44,44,45,45,46,46,47,47,48,48,49,49,50,50,51,51,52,52,53,53,54,54,55,55,56,56,57,57,58,58,59,59,60,60,61,61,62,62],"right_children":[2,4,6,8,10,12,14,16,18,20,22,24,26,28,30,32,34,36,38,40,42,44,46,48,50,52,54,56,58,60,62,64,66,68,70,72,74,76,78,80,82,84,86,88,90,92,94,96,98,100,102,104,106,108,110,112,114,116,118,120,122,124,126,-1,-1,-1,-1,-1,-1,-1,-1,-1,-1,-1,-1,-1,-1,-1,-1,-1,-1,-1,-1,-1,-1,-1,-1,-1,-1,-1,-1,-1,-1,-1,-1,-1,-1,-1,-1,-1,-1,-1,-1,-1,-1,-1,-1,-1,-1,-1,-1,-1,-1,-1,-1,-1,-1,-1,-1,-1,-1,-1,-1,-1,-1,-1,-1],"split_conditions":[7.507464E0,4.097415E-1,2.0489254E1,6.442047E-1,1.3712458E-1,8.912256E0,2.0102493E1,1.0343597E0,-1.04541425E-2,3.0892115E0,5.3296703E-1,5.989011E-1,5E-1,2.8525337E1,2.9085968E1,2.6085697E-2,2.6630133E-1,6.1237246E-1,3.7553358E0,2.6188266E-1,-5E-1,9.43366E-1,2.282007E0,1.4446756E1,1.4733179E0,1.11982735E2,6.462164E1,7.0710677E-1,-6.339746E-1,1.3040637E1,8.1383E0,3.0220587E-2,7.431228E-1,2.4146067E-2,7.307692E-1,6.961075E-1,6.666667E-1,4.722734E-1,-5.4855235E-3,6.4361984E-1,1.0644847E0,1.9586792E0,6.19569E0,1.5450336E0,8.69095E0,4.648007E1,5.3288255E0,1.2056033E-1,8.810691E0,3.1650593E0,5E-1,-4.945055E-2,2.6923078E-1,3.8319206E0,2.793219E1,1.1873299E1,2.4057903E0,4.7503853E0,3.1678638E1,0E0,2.8724842E1,1.51281805E1,-4.7826087E-1,-2.2005993E-1,-1.5878469E-1,2.8986511E0,-1.7876212E-1,-2.649468E-1,-2.2890976E-1,-2.3091024E-1,1.405181E-1,-1.6209152E-1,-2.5442383E-1,-1.7277923E-1,1.2187852E-1,-8.0874175E-2,7.9213333E-1,2.085623E0,1.0242384E-1,1.9244304E-2,-1.7132911E-1,2.9701295E-1,2.4398472E0,8.8412315E-1,8.4788486E-4,2.296474E-1,7.298007E-1,4.463338E-1,4.51529E0,1.6176564E-1,2.613302E0,5.5178505E-1,4.361173E0,2.7308567E0,8.997013E-1,2.6386287E0,7.580994E-1,3.096403E0,-4.685432E-1,1.7253892E0,3.7800148E-1,1.1195662E0,1.6703563E0,2.4439936E0,1.240255E0,-8.6592275E-1,1.9482438E-1,2.5708969E0,1.55337E0,1.7250928E-1,2.71391E0,2.782813E0,1.5501082E0,-1.0498996E0,1.2303303E0,2.7798188E0,-6.7661154E-1,3.6567953E0,9.203592E-1,5.7497516E0,3.895245E0,1.5100389E0,6.4669604E0,2.121502E0,7.384924E0,3.3725944E-1,2.812336E0],"split_indices":[19,44,57,1,59,28,59,18,97,7,85,85,70,19,52,59,38,80,38,36,81,29,15,33,79,73,73,80,102,75,79,98,8,64,85,2,88,48,96,49,57,62,38,49,45,64,8,97,28,96,80,85,85,75,72,97,97,79,75,88,73,40,71,0,0,0,0,0,0,0,0,0,0,0,0,0,0,0,0,0,0,0,0,0,0,0,0,0,0,0,0,0,0,0,0,0,0,0,0,0,0,0,0,0,0,0,0,0,0,0,0,0,0,0,0,0,0,0,0,0,0,0,0,0,0,0,0],"split_type":[0,0,0,0,0,0,0,0,0,0,0,0,0,0,0,0,0,0,0,0,0,0,0,0,0,0,0,0,0,0,0,0,0,0,0,0,0,0,0,0,0,0,0,0,0,0,0,0,0,0,0,0,0,0,0,0,0,0,0,0,0,0,0,0,0,0,0,0,0,0,0,0,0,0,0,0,0,0,0,0,0,0,0,0,0,0,0,0,0,0,0,0,0,0,0,0,0,0,0,0,0,0,0,0,0,0,0,0,0,0,0,0,0,0,0,0,0,0,0,0,0,0,0,0,0,0,0],"sum_hessian":[7.7213E4,7.0602E4,6.611E3,5.7335E4,1.3267E4,5.643E3,9.68E2,4.7868E4,9.467E3,7.888E3,5.379E3,4.626E3,1.017E3,7.71E2,1.97E2,6.368E3,4.15E4,1.766E3,7.701E3,3.001E3,4.887E3,3.957E3,1.422E3,2.84E3,1.786E3,2.93E2,7.24E2,4.24E2,3.47E2,1.28E2,6.9E1,6.365E3,3E0,3.6339E4,5.161E3,1.464E3,3.02E2,6.816E3,8.85E2,2.855E3,1.46E2,1.148E3,3.739E3,2.226E3,1.731E3,1.026E3,3.96E2,2.806E3,3.4E1,2.23E2,1.563E3,2.76E2,1.7E1,5.41E2,1.83E2,4.05E2,1.9E1,1.9E1,3.28E2,9.6E1,3.2E1,6.5E1,4E0,3.623E3,2.742E3,2E0,1E0,3.4634E4,1.705E3,5.121E3,4E1,5.71E2,8.93E2,2.19E2,8.3E1,6.806E3,1E1,5E0,8.8E2,2.208E3,6.47E2,1.38E2,8E0,4.7E1,1.101E3,3.457E3,2.82E2,2.225E3,1E0,1.724E3,7E0,1.024E3,2E0,1.8E1,3.78E2,2.5E1,2.781E3,2.8E1,6E0,4.1E1,1.82E2,1.114E3,4.49E2,4.6E1,2.3E2,1.1E1,6E0,8.3E1,4.58E2,1.4E1,1.69E2,3.43E2,6.2E1,5E0,1.4E1,1.2E1,7E0,3.2E2,8E0,2.7E1,6.9E1,1E0,3.1E1,3E0,6.2E1,1E0,3E0],"tree_param":{"num_deleted":"0","num_feature":"124","num_nodes":"127","size_leaf_vector":"1"}},{"base_weights":[4.008072E-2,-1.4507352E0,1.8591671E1,-2.5458338E0,3.249221E0,1.502003E1,4.8505875E1,-2.8409922E0,-7.790942E-1,1.7717577E0,5.5794344E0,1.2428863E1,2.2693819E1,4.158699E1,7.153535E1,-2.2030632E0,-2.9858177E0,-8.75596E-1,7.651543E0,4.5110616E-1,2.7066827E0,6.6458054E0,2.8868241E0,1.1200567E1,1.6949951E1,2.000757E1,2.810124E1,3.817414E1,5.1879387E1,7.458658E1,3.874668E1,-2.221093E0,9.774103E0,-2.9871252E0,1.5644551E1,-5.028671E-1,-1.7533231E0,3.8844093E1,4.298235E0,-1.0367532E0,1.087333E0,3.291894E0,7.895728E-1,9.030487E0,5.7521725E0,2.3182316E0,8.476971E0,1.7277653E1,1.0008605E1,1.8894209E1,1.0725185E1,1.3592045E1,2.3039467E1,2.1140272E1,3.2319035E1,3.913455E1,-3.5231936E0,6.131723E1,4.2519375E1,6.600791E1,8.647756E1,5.3655758E1,1.1791912E0,-1.7815542E-1,2.058534E0,3.262749E0,-1.9127277E-1,-2.4544248E-1,-2.2121507E-1,2.0309584E0,-1.536123E-1,-7.3567764E-3,-1.4495763E-1,-1.6649164E-1,1.1061424E-1,-5.2844256E-2,4.696521E0,2.2199045E-1,2.273728E0,-1.0958233E-1,1.5456179E-1,1.6851932E-1,9.357257E-3,5.4854053E-1,2.4060917E-1,2.258024E0,5.338951E-2,2.2728746E0,6.939227E-1,-1.6240259E-1,4.838896E-1,-9.690366E-2,2.6676357E-1,2.1673377E0,4.7729668E-1,1.8950615E0,1.0470796E0,7.450213E-1,1.5882833E0,1.2394215E0,1.873445E0,7.8531915E-1,5.2972302E0,5.764017E0,1.0331796E0,1.447462E0,2.294427E0,1.3824377E0,2.9217544E0,2.6789737E0,9.695967E-1,3.3662174E0,2.0429797E0,2.9202814E0,-1.6139348E0,6.034791E-1,5.056328E0,2.1316633E0,4.063238E0,5.440496E0,9.630461E-1,2.8207316E0,7.3107967E0,2.0203545E0,5.4704723E0,-4.3933958E-1,3.375889E-1],"categories":[],"categories_nodes":[],"categories_segments":[],"categories_sizes":[],"default_left":[0,0,0,0,0,0,0,0,0,0,0,0,0,0,0,0,0,0,0,0,0,0,0,0,0,0,0,0,0,0,0,0,0,0,0,0,0,0,0,0,0,0,0,0,0,0,0,0,0,0,0,0,0,0,0,0,0,0,0,0,0,0,0,0,0,0,0,0,0,0,0,0,0,0,0,0,0,0,0,0,0,0,0,0,0,0,0,0,0,0,0,0,0,0,0,0,0,0,0,0,0,0,0,0,0,0,0,0,0,0,0,0,0,0,0,0,0,0,0,0,0,0,0,0,0,0,0],"id":7,"left_children":[1,3,5,7,9,11,13,15,17,19,21,23,25,27,29,31,33,35,37,39,41,43,45,47,49,51,53,55,57,59,61,63,65,67,69,71,73,75,77,79,81,83,85,87,89,91,93,95,97,99,101,103,105,107,109,111,113,115,117,119,121,123,125,-1,-1,-1,-1,-1,-1,-1,-1,-1,-1,-1,-1,-1,-1,-1,-1,-1,-1,-1,-1,-1,-1,-1,-1,-1,-1,-1,-1,-1,-1,-1,-1,-1,-1,-1,-1,-1,-1,-1,-1,-1,-1,-1,-1,-1,-1,-1,-1,-1,-1,-1,-1,-1,-1,-1,-1,-1,-1,-1,-1,-1,-1,-1,-1],"loss_changes":[2.1349818E6,3.6777084E5,6.127625E5,3.0217375E4,4.6478297E4,1.0174325E5,9.454E4,4.5809688E3,6.756905E3,1.0203654E4,1.5023672E4,2.1123438E4,1.8233938E4,1.46343125E4,1.1116375E4,2.0064688E3,1.0324375E3,2.6830913E3,9.665273E3,3.2451802E3,5.4263438E3,7.943672E3,4.7099785E3,2.1710188E4,9.69725E3,1.65705E4,1.1853469E4,1.45145E4,7.55175E3,7.2469375E3,7.778084E3,1.5580938E3,5.3788745E3,7.180625E2,5.6211566E2,3.0982542E3,2.5164639E3,7.100698E3,3.081498E3,1.0180198E3,2.3742424E3,3.7361133E3,3.779833E3,6.8068516E3,6.3150547E3,4.853804E3,6.2413633E3,1.2956375E4,1.713314E4,9.2083125E3,9.283471E3,1.0195316E4,1.588675E4,9.105578E3,5.82325E3,1.2972125E4,6.734789E3,5.10375E3,6.6554688E3,7.593375E3,9.345344E3,2.4552148E3,1.2459499E2,0E0,0E0,0E0,0E0,0E0,0E0,0E0,0E0,0E0,0E0,0E0,0E0,0E0,0E0,0E0,0E0,0E0,0E0,0E0,0E0,0E0,0E0,0E0,0E0,0E0,0E0,0E0,0E0,0E0,0E0,0E0,0E0,0E0,0E0,0E0,0E0,0E0,0E0,0E0,0E0,0E0,0E0,0E0,0E0,0E0,0E0,0E0,0E0,0E0,0E0,0E0,0E0,0E0,0E0,0E0,0E0,0E0,0E0,0E0,0E0,0E0,0E0,0E0,0E0],"parents":[2147483647,0,0,1,1,2,2,3,3,4,4,5,5,6,6,7,7,8,8,9,9,10,10,11,11,12,12,13,13,14,14,15,15,16,16,17,17,18,18,19,19,20,20,21,21,22,22,23,23,24,24,25,25,26,26,27,27,28,28,29,29,30,30,31,31,32,32,33,33,34,34,35,35,36,36,37,37,38,38,39,39,40,40,41,41,42,42,43,43,44,44,45,45,46,46,47,47,48,48,49,49,50,50,51,51,52,52,53,53,54,54,55,55,56,56,57,57,58,58,59,59,60,60,61,61,62,62],"right_children":[2,4,6,8,10,12,14,16,18,20,22,24,26,28,30,32,34,36,38,40,42,44,46,48,50,52,54,56,58,60,62,64,66,68,70,72,74,76,78,80,82,84,86,88,90,92,94,96,98,100,102,104,106,108,110,112,114,116,118,120,122,124,126,-1,-1,-1,-1,-1,-1,-1,-1,-1,-1,-1,-1,-1,-1,-1,-1,-1,-1,-1,-1,-1,-1,-1,-1,-1,-1,-1,-1,-1,-1,-1,-1,-1,-1,-1,-1,-1,-1,-1,-1,-1,-1,-1,-1,-1,-1,-1,-1,-1,-1,-1,-1,-1,-1,-1,-1,-1,-1,-1,-1,-1,-1,-1,-1],"split_conditions":[4.7272344E0,1.2531524E0,2.2015038E1,9.173651E-1,9.520556E-1,9.067647E0,2.1586443E1,1.4735118E0,6.75831E-1,2.7755804E0,9.43366E-1,8.048422E0,3.5355338E-1,2.2903639E1,9.230769E-1,8.133703E-1,8.100398E-1,1.044899E0,9.968632E-1,1.313478E0,1.5450436E-1,-2.173913E-1,3.032908E0,1.5670071E1,0E0,5E-1,1.4248878E1,1.907845E1,1.0561695E2,3.3105515E1,4.5143707E1,1.3975095E0,8.886158E-1,-1.04541425E-2,6.72884E-1,2.1713385E-1,2.4146067E-2,3.233737E0,5.92103E-1,2.5627007E0,1.9509476E0,1.2679714E-1,3.1387432E0,5.469964E-2,1.5111852E0,1.649107E-1,2.396359E0,-2.173913E-1,5.7735026E-1,5.7833E0,8.399211E0,3.8536336E0,4.648007E1,7.692308E-1,2.1258585E1,6.666667E-1,4.962392E0,3.1506083E0,2.7515087E0,7.4178505E0,-6.1237246E-1,-5E-1,-5.652174E-1,-1.7815542E-1,2.058534E0,3.262749E0,-1.9127277E-1,-2.4544248E-1,-2.2121507E-1,2.0309584E0,-1.536123E-1,-7.3567764E-3,-1.4495763E-1,-1.6649164E-1,1.1061424E-1,-5.2844256E-2,4.696521E0,2.2199045E-1,2.273728E0,-1.0958233E-1,1.5456179E-1,1.6851932E-1,9.357257E-3,5.4854053E-1,2.4060917E-1,2.258024E0,5.338951E-2,2.2728746E0,6.939227E-1,-1.6240259E-1,4.838896E-1,-9.690366E-2,2.6676357E-1,2.1673377E0,4.7729668E-1,1.8950615E0,1.0470796E0,7.450213E-1,1.5882833E0,1.2394215E0,1.873445E0,7.8531915E-1,5.2972302E0,5.764017E0,1.0331796E0,1.447462E0,2.294427E0,1.3824377E0,2.9217544E0,2.6789737E0,9.695967E-1,3.3662174E0,2.0429797E0,2.9202814E0,-1.6139348E0,6.034791E-1,5.056328E0,2.1316633E0,4.063238E0,5.440496E0,9.630461E-1,2.8207316E0,7.3107967E0,2.0203545E0,5.4704723E0,-4.3933958E-1,3.375889E-1],"split_indices":[59,51,12,1,28,28,59,27,15,1,29,78,81,28,89,33,22,27,74,14,26,71,52,64,82,89,45,59,93,28,33,48,64,77,2,0,64,12,0,77,23,74,8,79,39,26,40,71,83,52,52,78,93,89,51,68,79,75,79,79,81,68,71,0,0,0,0,0,0,0,0,0,0,0,0,0,0,0,0,0,0,0,0,0,0,0,0,0,0,0,0,0,0,0,0,0,0,0,0,0,0,0,0,0,0,0,0,0,0,0,0,0,0,0,0,0,0,0,0,0,0,0,0,0,0,0,0],"split_type":[0,0,0,0,0,0,0,0,0,0,0,0,0,0,0,0,0,0,0,0,0,0,0,0,0,0,0,0,0,0,0,0,0,0,0,0,0,0,0,0,0,0,0,0,0,0,0,0,0,0,0,0,0,0,0,0,0,0,0,0,0,0,0,0,0,0,0,0,0,0,0,0,0,0,0,0,0,0,0,0,0,0,0,0,0,0,0,0,0,0,0,0,0,0,0,0,0,0,0,0,0,0,0,0,0,0,0,0,0,0,0,0,0,0,0,0,0,0,0,0,0,0,0,0,0,0,0],"sum_hessian":[7.7193E4,7.1452E4,5.741E3,5.795E4,1.3502E4,5.13E3,6.11E2,4.9654E4,8.296E3,8.264E3,5.238E3,3.837E3,1.293E3,4.72E2,1.39E2,9.19E3,4.0464E4,8.203E3,9.3E1,3.426E3,4.838E3,3.751E3,1.487E3,3.02E3,8.17E2,8.67E2,4.26E2,3.58E2,1.14E2,1.26E2,1.3E1,9.177E3,1.3E1,4.0462E4,2E0,5.759E3,2.444E3,8E0,8.5E1,1.026E3,2.4E3,3.706E3,1.132E3,1.02E3,2.731E3,1.351E3,1.36E2,4.93E2,2.527E3,6.21E2,1.96E2,2.8E2,5.87E2,1.63E2,2.63E2,3.5E2,8E0,5.4E1,6E1,7.7E1,4.9E1,9E0,4E0,9.176E3,1E0,3E0,1E1,2.9643E4,1.0819E4,1E0,1E0,4.384E3,1.375E3,2.213E3,2.31E2,3E0,5E0,8.1E1,4E0,9.23E2,1.03E2,1.17E3,1.23E3,2.72E2,3.434E3,4E0,1.128E3,1.7E1,1.003E3,1E2,2.631E3,3.02E2,1.049E3,1.5E1,1.21E2,1.93E2,3E2,2.362E3,1.65E2,3.57E2,2.64E2,1.94E2,2E0,2E0,2.78E2,3.15E2,2.72E2,1.32E2,3.1E1,2.48E2,1.5E1,2.86E2,6.4E1,2E0,6E0,2E0,5.2E1,2.2E1,3.8E1,7.4E1,3E0,5E0,4.4E1,4E0,5E0,1E0,3E0],"tree_param":{"num_deleted":"0","num_feature":"124","num_nodes":"127","size_leaf_vector":"1"}},{"base_weights":[1.963092E-2,-1.2912647E0,1.8057852E1,-2.2186813E0,3.701025E0,1.3837189E1,4.1691013E1,-2.617354E0,-5.0410134E-1,2.7279198E0,6.637055E0,1.1866102E1,2.1054098E1,3.504661E1,6.1447212E1,-2.7339222E0,-1.938081E0,-6.241122E-1,4.7464676E0,7.508464E-1,3.2799296E0,5.3101497E0,1.0474019E1,9.814205E0,1.4373678E1,2.859357E1,1.886569E1,3.821465E1,2.580693E1,5.1470844E1,7.193733E1,-2.7353618E0,2.3107991E0,-1.9518671E0,1.4953504E1,-7.331913E-1,3.286488E0,9.4440975E0,1.3638484E0,4.938863E0,2.5723884E-1,2.306023E0,4.851809E0,2.0344282E1,4.9764023E0,2.2646498E1,9.210976E0,2.4647953E1,9.322974E0,1.3464702E1,2.3922564E1,1.9419329E1,3.327199E1,3.5589497E1,1.7576134E1,3.4936993E1,4.7096554E1,1.8207554E1,4.9550686E1,3.9054382E1,5.5916702E1,6.1154015E1,8.689666E1,-2.0312802E-1,-2.2536972E-1,-1.5770043E-1,7.1480083E-1,2.753558E0,-2.7074817E-1,-1.7495301E-1,-4.118972E-2,3.0727628E-1,-2.6738527E-1,3.0773038E-1,1.5284123E0,1.2173877E0,-1.3931127E-2,3.3355895E-1,4.223127E0,-1.6951217E-1,8.006047E-2,2.4051572E-1,4.949231E-2,3.5573006E-1,1.036715E0,4.5104167E-1,3.367236E0,3.171559E0,3.87019E-1,8.396894E-1,2.6254213E0,1.9494032E0,6.7749786E-1,1.438024E-1,2.927959E0,7.2227323E-1,2.6838717E0,1.4998753E0,9.691762E-1,2.27559E0,1.1396667E0,5.179351E0,1.380894E0,9.297797E-1,2.8637745E0,1.6503652E0,3.486212E0,1.6627127E0,1.0869862E0,2.5281243E0,3.6694765E0,2.5108843E0,4.0351667E0,3.625535E-1,2.2441404E0,5.659011E0,1.1008512E0,9.326293E-1,4.1236167E0,4.6220994E0,1.4662297E0,3.619195E0,5.8136363E0,7.3553457E0,-7.43337E-2],"categories":[],"categories_nodes":[],"categories_segments":[],"categories_sizes":[],"default_left":[0,0,0,0,0,0,0,0,0,0,0,0,0,0,0,0,0,0,0,0,0,0,0,0,0,0,0,0,0,0,0,0,0,0,0,0,0,0,0,0,0,0,0,0,0,0,0,0,0,0,0,0,0,0,0,0,0,0,0,0,0,0,0,0,0,0,0,0,0,0,0,0,0,0,0,0,0,0,0,0,0,0,0,0,0,0,0,0,0,0,0,0,0,0,0,0,0,0,0,0,0,0,0,0,0,0,0,0,0,0,0,0,0,0,0,0,0,0,0,0,0,0,0,0,0],"id":8,"left_children":[1,3,5,7,9,11,13,15,17,19,21,23,25,27,29,31,33,35,37,39,41,43,45,47,49,51,53,55,57,59,61,63,-1,65,67,69,71,73,75,77,79,81,83,85,87,89,91,93,95,97,99,101,103,105,107,109,111,113,115,117,119,121,123,-1,-1,-1,-1,-1,-1,-1,-1,-1,-1,-1,-1,-1,-1,-1,-1,-1,-1,-1,-1,-1,-1,-1,-1,-1,-1,-1,-1,-1,-1,-1,-1,-1,-1,-1,-1,-1,-1,-1,-1,-1,-1,-1,-1,-1,-1,-1,-1,-1,-1,-1,-1,-1,-1,-1,-1,-1,-1,-1,-1,-1,-1],"loss_changes":[1.8253935E6,3.3320594E5,5.2110325E5,4.1485062E4,3.2195312E4,6.2895562E4,1.01810875E5,3.8937812E3,7.2185273E3,9.241395E3,1.4230531E4,1.7810844E4,1.51515625E4,1.6430375E4,1.7018625E4,1.9920938E3,1.7095684E3,4.778228E3,4.0550356E3,3.8231172E3,1.0124656E4,1.03705E4,1.0860945E4,1.37754375E4,1.32876875E4,8.453125E3,1.53335E4,1.1192875E4,2.7065656E4,3.6124062E3,9.8491875E3,6.6721875E2,0E0,1.5397109E3,2.258273E3,3.4560522E3,1.1301729E3,5.712797E3,3.198626E3,6.958784E3,2.9277778E3,4.832002E3,8.259672E3,1.415391E4,9.629395E3,7.9357188E3,7.1511367E3,1.6593164E4,1.2983984E4,1.0001656E4,5.5025312E3,6.1206445E3,7.1830625E3,5.315125E3,8.533484E3,1.0436875E4,4.509297E3,1.5893332E4,2.708304E4,1.0007449E4,4.183422E3,7.34225E3,1.6479969E4,0E0,0E0,0E0,0E0,0E0,0E0,0E0,0E0,0E0,0E0,0E0,0E0,0E0,0E0,0E0,0E0,0E0,0E0,0E0,0E0,0E0,0E0,0E0,0E0,0E0,0E0,0E0,0E0,0E0,0E0,0E0,0E0,0E0,0E0,0E0,0E0,0E0,0E0,0E0,0E0,0E0,0E0,0E0,0E0,0E0,0E0,0E0,0E0,0E0,0E0,0E0,0E0,0E0,0E0,0E0,0E0,0E0,0E0,0E0,0E0,0E0,0E0],"parents":[2147483647,0,0,1,1,2,2,3,3,4,4,5,5,6,6,7,7,8,8,9,9,10,10,11,11,12,12,13,13,14,14,15,15,16,16,17,17,18,18,19,19,20,20,21,21,22,22,23,23,24,24,25,25,26,26,27,27,28,28,29,29,30,30,31,31,33,33,34,34,35,35,36,36,37,37,38,38,39,39,40,40,41,41,42,42,43,43,44,44,45,45,46,46,47,47,48,48,49,49,50,50,51,51,52,52,53,53,54,54,55,55,56,56,57,57,58,58,59,59,60,60,61,61,62,62],"right_children":[2,4,6,8,10,12,14,16,18,20,22,24,26,28,30,32,34,36,38,40,42,44,46,48,50,52,54,56,58,60,62,64,-1,66,68,70,72,74,76,78,80,82,84,86,88,90,92,94,96,98,100,102,104,106,108,110,112,114,116,118,120,122,124,-1,-1,-1,-1,-1,-1,-1,-1,-1,-1,-1,-1,-1,-1,-1,-1,-1,-1,-1,-1,-1,-1,-1,-1,-1,-1,-1,-1,-1,-1,-1,-1,-1,-1,-1,-1,-1,-1,-1,-1,-1,-1,-1,-1,-1,-1,-1,-1,-1,-1,-1,-1,-1,-1,-1,-1,-1,-1,-1,-1,-1,-1],"split_conditions":[5.1089573E0,1.6588984E0,2.0110332E1,8.400701E-1,2.731636E0,8.649812E0,2.0102493E1,2.0227978E-1,4.739556E0,4.3956045E-2,5.879121E-1,5.989011E-1,-4.7826087E-1,5.303037E0,2.9962973E1,2.27593E0,5.3646892E-2,2.861728E0,3.542812E-1,1.7850792E-1,4.509551E-1,2.8143737E-1,2.5080395E0,5.898199E-1,2.9910984E1,2.2296537E1,2.593806E0,2.0745554E1,1.9181238E1,3.3855946E0,1.4576967E2,1.1295233E0,2.3107991E0,2.5698667E0,1.1169055E-1,-1.04541425E-2,-3.9130434E-1,1.5230834E0,2.8209386E0,1.0127311E0,2.6520923E-1,6.4160293E-1,2.2296537E1,4.375738E0,8.988324E-2,6.585805E0,3.5688245E0,8.030665E-1,1.8001661E1,-4.7826087E-1,5.9545255E0,1.069579E1,1.9375856E0,3.6422791E0,4.7503853E0,7.1305814E0,3.1195474E0,-3.6602542E-1,6.666667E-1,6.5384614E-1,7.4178505E0,1.6666667E-1,8.333333E-1,-2.0312802E-1,-2.2536972E-1,-1.5770043E-1,7.1480083E-1,2.753558E0,-2.7074817E-1,-1.7495301E-1,-4.118972E-2,3.0727628E-1,-2.6738527E-1,3.0773038E-1,1.5284123E0,1.2173877E0,-1.3931127E-2,3.3355895E-1,4.223127E0,-1.6951217E-1,8.006047E-2,2.4051572E-1,4.949231E-2,3.5573006E-1,1.036715E0,4.5104167E-1,3.367236E0,3.171559E0,3.87019E-1,8.396894E-1,2.6254213E0,1.9494032E0,6.7749786E-1,1.438024E-1,2.927959E0,7.2227323E-1,2.6838717E0,1.4998753E0,9.691762E-1,2.27559E0,1.1396667E0,5.179351E0,1.380894E0,9.297797E-1,2.8637745E0,1.6503652E0,3.486212E0,1.6627127E0,1.0869862E0,2.5281243E0,3.6694765E0,2.5108843E0,4.0351667E0,3.625535E-1,2.2441404E0,5.659011E0,1.1008512E0,9.326293E-1,4.1236167E0,4.6220994E0,1.4662297E0,3.619195E0,5.8136363E0,7.3553457E0,-7.43337E-2],"split_indices":[59,44,12,1,52,24,59,45,12,85,85,85,71,79,47,38,59,54,75,77,59,74,76,79,74,74,75,47,98,79,73,2,0,7,59,77,71,52,7,2,73,29,74,44,77,50,31,77,44,71,79,73,77,77,79,77,77,102,67,69,79,68,67,0,0,0,0,0,0,0,0,0,0,0,0,0,0,0,0,0,0,0,0,0,0,0,0,0,0,0,0,0,0,0,0,0,0,0,0,0,0,0,0,0,0,0,0,0,0,0,0,0,0,0,0,0,0,0,0,0,0,0,0,0,0],"split_type":[0,0,0,0,0,0,0,0,0,0,0,0,0,0,0,0,0,0,0,0,0,0,0,0,0,0,0,0,0,0,0,0,0,0,0,0,0,0,0,0,0,0,0,0,0,0,0,0,0,0,0,0,0,0,0,0,0,0,0,0,0,0,0,0,0,0,0,0,0,0,0,0,0,0,0,0,0,0,0,0,0,0,0,0,0,0,0,0,0,0,0,0,0,0,0,0,0,0,0,0,0,0,0,0,0,0,0,0,0,0,0,0,0,0,0,0,0,0,0,0,0,0,0,0,0],"sum_hessian":[7.7194E4,7.1965E4,5.229E3,6.0691E4,1.1274E4,4.438E3,7.91E2,4.9241E4,1.145E4,8.469E3,2.805E3,3.488E3,9.5E2,5.94E2,1.97E2,4.2026E4,7.215E3,1.1195E4,2.55E2,1.849E3,6.62E3,2.086E3,7.19E2,1.921E3,1.567E3,2.11E2,7.39E2,4.4E2,1.54E2,1.04E2,9.3E1,4.2025E4,1E0,7.21E3,5E0,1.0892E4,3.03E2,1.06E2,1.49E2,1.94E2,1.655E3,4.089E3,2.531E3,4.4E1,2.042E3,6.6E1,6.53E2,6E1,1.861E3,1.433E3,1.34E2,7.3E1,1.38E2,5.1E1,6.88E2,3.25E2,1.15E2,1.18E2,3.6E1,3E1,7.4E1,5.7E1,3.6E1,1.2368E4,2.9657E4,7.198E3,1.2E1,2E0,3E0,1.421E3,9.471E3,2.8E2,2.3E1,6.8E1,3.8E1,1.4E1,1.35E2,1.92E2,2E0,3.94E2,1.261E3,2.889E3,1.2E3,2.412E3,1.19E2,2.7E1,1.7E1,7E0,2.035E3,3.1E1,3.5E1,2.9E1,6.24E2,2.1E1,3.9E1,1.84E3,2.1E1,2.89E2,1.144E3,9E1,4.4E1,2E0,7.1E1,1.5E1,1.23E2,1.9E1,3.2E1,3.79E2,3.09E2,2.52E2,7.3E1,2.2E1,9.3E1,5E1,6.8E1,2.2E1,1.4E1,1E1,2E1,7E1,4E0,2.6E1,3.1E1,3.4E1,2E0],"tree_param":{"num_deleted":"0","num_feature":"124","num_nodes":"125","size_leaf_vector":"1"}},{"base_weights":[-2.4184221E-3,-1.2272406E0,1.5280776E1,-2.1952264E0,2.7512896E0,1.2336865E1,4.2551907E1,-1.0972832E0,-2.4897444E0,1.0709782E0,4.3059397E0,1.0154684E1,2.0076105E1,3.6722084E1,6.370099E1,-1.4849976E0,-2.8084022E-1,-2.5552592E0,-2.030504E0,1.6641564E0,-1.1559826E0,3.1344929E0,6.10647E0,8.78198E0,1.4088983E1,1.3373014E1,2.2490223E1,8.040147E0,3.778797E1,6.554026E1,2.4909685E1,-1.5599557E0,1.0185425E0,-3.3850566E-1,1.2951243E1,-2.582528E0,-2.1534994E0,-2.3466358E0,-1.5497043E0,1.2144893E0,3.3811896E0,2.0464954E0,-1.2120106E0,3.056885E0,4.06416E1,4.3385674E1,5.999759E0,7.2625127E0,1.3028029E1,2.0766771E1,1.2305187E1,8.780799E0,2.146576E1,1.8499578E1,2.6601803E1,2.8280993E0,-1.0070563E1,4.991832E0,3.824789E1,5.4060707E1,7.318577E1,2.719817E0,1.4597479E0,-1.2543975E-1,1.1918621E0,5.6474786E-2,1.2455932E0,-3.0562446E-2,1.0153148E0,3.5083356E0,4.725789E-1,-2.0699048E-1,-4.9915183E-2,-1.7356236E-1,6.790407E-1,-1.89335E-1,1.0861589E-1,-3.4639149E-3,-1.4620928E-1,7.962835E-2,4.4589618E-1,2.449016E-1,1.4077358E0,-1.974642E-1,-1.1590272E-2,1.9411656E-1,4.6688125E-1,4.3414183E0,8.033607E-1,4.9570885E0,-6.585669E-1,4.6422163E-1,1.7350962E0,5.388793E-1,1.5212146E0,6.168698E-1,1.2557825E0,3.6664417E-1,1.9413782E0,1.4616036E0,7.112898E-1,4.5371518E-1,1.360362E0,3.2167366E-1,2.21914E0,2.7319472E0,1.3713485E0,-1.4055203E-1,2.2031658E0,5.675224E-1,-1.3915231E0,1.4400836E0,-7.412271E-1,2.8147023E0,3.519695E0,4.404164E0,2.5905365E-1,5.9992814E0,8.70423E-1,-1.3806908E-1,3.1323883E-1],"categories":[],"categories_nodes":[],"categories_segments":[],"categories_sizes":[],"default_left":[0,0,0,0,0,0,0,0,0,0,0,0,0,0,0,0,0,0,0,0,0,0,0,0,0,0,0,0,0,0,0,0,0,0,0,0,0,0,0,0,0,0,0,0,0,0,0,0,0,0,0,0,0,0,0,0,0,0,0,0,0,0,0,0,0,0,0,0,0,0,0,0,0,0,0,0,0,0,0,0,0,0,0,0,0,0,0,0,0,0,0,0,0,0,0,0,0,0,0,0,0,0,0,0,0,0,0,0,0,0,0,0,0,0,0,0,0,0,0,0,0],"id":9,"left_children":[1,3,5,7,9,11,13,15,17,19,21,23,25,27,29,31,33,35,37,39,41,43,45,47,49,51,53,55,57,59,61,63,65,67,69,71,73,75,77,79,81,-1,83,85,87,89,91,93,95,97,99,101,103,105,107,-1,109,111,113,115,117,-1,119,-1,-1,-1,-1,-1,-1,-1,-1,-1,-1,-1,-1,-1,-1,-1,-1,-1,-1,-1,-1,-1,-1,-1,-1,-1,-1,-1,-1,-1,-1,-1,-1,-1,-1,-1,-1,-1,-1,-1,-1,-1,-1,-1,-1,-1,-1,-1,-1,-1,-1,-1,-1,-1,-1,-1,-1,-1,-1],"loss_changes":[1.443381E6,2.7492497E5,4.5877862E5,1.8563875E4,3.6489156E4,8.7024875E4,6.6336375E4,3.8443604E3,1.3569375E3,8.872336E3,1.5285422E4,2.1646188E4,1.8065875E4,1.3117125E4,6.8578125E3,1.5469727E3,2.9893733E3,4.2845312E2,8.562051E2,4.0903066E3,2.1477227E3,1.2677668E4,1.1113086E4,1.9202516E4,1.2144656E4,1.1072094E4,1.3175594E4,8.764604E3,6.1894375E3,5.9612188E3,1.4421675E3,1.0815762E3,1.0807375E3,2.2143755E3,3.4415134E3,3.509375E2,4.4897754E2,2.5657617E2,9.4062256E2,4.0103477E3,4.9487344E3,0E0,1.8912705E3,7.677301E3,3.207627E3,8.181698E3,8.688359E3,1.3516531E4,1.1048719E4,1.223857E4,1.6617836E4,4.8898096E3,1.181743E4,8.466281E3,1.089875E4,0E0,1.5061431E3,1.4651077E3,5.796875E3,2.2904688E3,6.4950625E3,0E0,3.0226671E1,0E0,0E0,0E0,0E0,0E0,0E0,0E0,0E0,0E0,0E0,0E0,0E0,0E0,0E0,0E0,0E0,0E0,0E0,0E0,0E0,0E0,0E0,0E0,0E0,0E0,0E0,0E0,0E0,0E0,0E0,0E0,0E0,0E0,0E0,0E0,0E0,0E0,0E0,0E0,0E0,0E0,0E0,0E0,0E0,0E0,0E0,0E0,0E0,0E0,0E0,0E0,0E0,0E0,0E0,0E0,0E0,0E0,0E0],"parents":[2147483647,0,0,1,1,2,2,3,3,4,4,5,5,6,6,7,7,8,8,9,9,10,10,11,11,12,12,13,13,14,14,15,15,16,16,17,17,18,18,19,19,20,20,21,21,22,22,23,23,24,24,25,25,26,26,27,27,28,28,29,29,30,30,31,31,32,32,33,33,34,34,35,35,36,36,37,37,38,38,39,39,40,40,42,42,43,43,44,44,45,45,46,46,47,47,48,48,49,49,50,50,51,51,52,52,53,53,54,54,56,56,57,57,58,58,59,59,60,60,62,62],"right_children":[2,4,6,8,10,12,14,16,18,20,22,24,26,28,30,32,34,36,38,40,42,44,46,48,50,52,54,56,58,60,62,64,66,68,70,72,74,76,78,80,82,-1,84,86,88,90,92,94,96,98,100,102,104,106,108,-1,110,112,114,116,118,-1,120,-1,-1,-1,-1,-1,-1,-1,-1,-1,-1,-1,-1,-1,-1,-1,-1,-1,-1,-1,-1,-1,-1,-1,-1,-1,-1,-1,-1,-1,-1,-1,-1,-1,-1,-1,-1,-1,-1,-1,-1,-1,-1,-1,-1,-1,-1,-1,-1,-1,-1,-1,-1,-1,-1,-1,-1,-1,-1],"split_conditions":[4.7272344E0,4.4444174E-1,2.8525337E1,6.6817963E-1,1.1210858E0,9.846035E0,4.6510548E1,1.2185395E0,5.1847965E-1,4.40064E-1,3.791209E-1,5E-1,4.7802198E-1,-6.339746E-1,8.1383E0,1.7596538E0,1.0621554E0,2.4146067E-2,5.8215684E-3,1.9991609E0,1.2088839E0,4.336019E0,8.1641324E-2,7.7401276E0,1.3159847E1,3.5355338E-1,5.2691586E1,-7.3913044E-1,1.3351659E0,-8.6595606E-17,1.6666667E-1,1.5822196E0,1.703645E-1,5.1488905E0,-5E-1,5.405875E-1,2.2834725E0,5.82766E0,4.195951E-2,3.380631E1,8.048422E0,2.0464954E0,3.241201E0,6.1237246E-1,9.094087E0,4.5128164E0,1.3680773E1,8.4615386E-1,1.2143133E1,7.838977E-1,-4.7826087E-1,1.0561695E2,9.905555E0,5.2747256E-1,-6.666667E-1,2.8280993E0,3.8367248E0,2.173913E-1,1.7900002E1,8.4615386E-1,1.4285786E1,2.719817E0,2.2919987E1,-1.2543975E-1,1.1918621E0,5.6474786E-2,1.2455932E0,-3.0562446E-2,1.0153148E0,3.5083356E0,4.725789E-1,-2.0699048E-1,-4.9915183E-2,-1.7356236E-1,6.790407E-1,-1.89335E-1,1.0861589E-1,-3.4639149E-3,-1.4620928E-1,7.962835E-2,4.4589618E-1,2.449016E-1,1.4077358E0,-1.974642E-1,-1.1590272E-2,1.9411656E-1,4.6688125E-1,4.3414183E0,8.033607E-1,4.9570885E0,-6.585669E-1,4.6422163E-1,1.7350962E0,5.388793E-1,1.5212146E0,6.168698E-1,1.2557825E0,3.6664417E-1,1.9413782E0,1.4616036E0,7.112898E-1,4.5371518E-1,1.360362E0,3.2167366E-1,2.21914E0,2.7319472E0,1.3713485E0,-1.4055203E-1,2.2031658E0,5.675224E-1,-1.3915231E0,1.4400836E0,-7.412271E-1,2.8147023E0,3.519695E0,4.404164E0,2.5905365E-1,5.9992814E0,8.70423E-1,-1.3806908E-1,3.1323883E-1],"split_indices":[59,44,19,32,52,28,19,19,38,49,85,80,85,82,79,64,31,64,77,54,38,40,76,78,64,101,73,71,79,101,68,5,26,19,103,8,55,78,79,72,78,0,38,80,64,1,78,85,76,77,71,64,24,85,68,0,79,71,15,69,77,0,15,0,0,0,0,0,0,0,0,0,0,0,0,0,0,0,0,0,0,0,0,0,0,0,0,0,0,0,0,0,0,0,0,0,0,0,0,0,0,0,0,0,0,0,0,0,0,0,0,0,0,0,0,0,0,0,0,0,0],"split_type":[0,0,0,0,0,0,0,0,0,0,0,0,0,0,0,0,0,0,0,0,0,0,0,0,0,0,0,0,0,0,0,0,0,0,0,0,0,0,0,0,0,0,0,0,0,0,0,0,0,0,0,0,0,0,0,0,0,0,0,0,0,0,0,0,0,0,0,0,0,0,0,0,0,0,0,0,0,0,0,0,0,0,0,0,0,0,0,0,0,0,0,0,0,0,0,0,0,0,0,0,0,0,0,0,0,0,0,0,0,0,0,0,0,0,0,0,0,0,0,0,0],"sum_hessian":[7.7105E4,7.1385E4,5.72E3,5.7416E4,1.3969E4,5.164E3,5.56E2,1.2145E4,4.5271E4,6.714E3,7.255E3,4.03E3,1.134E3,4.38E2,1.18E2,8.234E3,3.911E3,3.9615E4,5.656E3,5.302E3,1.412E3,4.397E3,2.858E3,2.99E3,1.04E3,3.02E2,8.32E2,1.6E1,4.22E2,1.12E2,6E0,7.995E3,2.39E2,3.895E3,1.6E1,3.7092E4,2.523E3,3.41E3,2.246E3,4.203E3,1.099E3,2E0,1.41E3,4.389E3,8E0,7E0,2.851E3,2.204E3,7.86E2,2.17E2,8.23E2,1.94E2,1.08E2,4.25E2,4.07E2,6E0,1E1,6E0,4.16E2,4.8E1,6.4E1,4E0,2E0,7.992E3,3E0,2.35E2,4E0,3.883E3,1.2E1,2E0,1.4E1,3.7E4,9.2E1,2.52E3,3E0,3.392E3,1.8E1,3.5E2,1.896E3,4.003E3,2E2,1.076E3,2.3E1,6.47E2,7.63E2,3.579E3,8.1E2,5E0,3E0,5E0,2E0,2.817E3,3.4E1,2.111E3,9.3E1,2.64E2,5.22E2,3.9E1,1.78E2,2.98E2,5.25E2,1.42E2,5.2E1,2.9E1,7.9E1,3.2E1,3.93E2,1.3E1,3.94E2,3E0,7E0,3E0,3E0,2.76E2,1.4E2,4.7E1,1E0,6.2E1,2E0,1E0,1E0],"tree_param":{"num_deleted":"0","num_feature":"124","num_nodes":"121","size_leaf_vector":"1"}},{"base_weights":[5.520845E-4,-1.0677565E0,1.5099707E1,-1.8080674E0,3.763364E0,1.2717768E1,4.053805E1,-2.1753314E0,8.410211E-2,2.3721898E0,5.2098923E0,1.0968018E1,2.13763E1,3.4433548E1,5.98804E1,-1.3672255E0,-2.2953348E0,-9.570703E-2,2.6734445E0,-1.0756078E0,2.613234E0,4.431639E0,8.278731E0,9.278805E0,1.5613773E1,1.8549248E1,2.623128E1,2.6934193E1,4.0735035E1,6.397798E1,2.9261656E1,-1.3788102E0,3.073646E0,-2.2964451E0,1.9269763E0,-1.0819812E0,2.4252158E-1,2.9030499E1,2.4271722E0,1.8358938E1,-1.961255E0,3.7037377E0,1.4755912E0,2.0725784E1,4.2719903E0,1.05146475E1,2.8406715E0,8.180424E0,1.420251E1,2.0090252E1,1.1141718E1,1.0683768E1,2.2082773E1,2.4022768E1,4.236831E1,3.8104866E1,1.5123578E1,5.3675236E1,3.424924E1,5.389978E1,7.3740204E1,3.835711E1,-3.0662565E0,-1.12298325E-1,1.2447498E0,-1.645409E-1,-1.9158584E-1,-1.0279918E-1,5.6508636E-1,1.5137242E-2,1.3823798E0,3.813905E-1,3.1976168E0,1.7435993E-1,1.5925905E0,3.498915E0,-4.912992E-1,1.5809025E-1,-3.3956558E-1,2.8099665E-1,2.2410903E0,1.1372056E-1,4.881168E0,1.0340309E0,4.605883E0,2.3046677E0,3.3528492E-1,4.6781242E-1,1.1894395E0,5.249968E0,1.9003387E-1,4.6395266E-1,8.3003646E-1,8.5635495E-1,1.621376E0,1.8564994E0,1.0827731E0,4.900155E-1,1.1722351E0,3.962833E0,7.468372E-1,1.1530863E0,2.269001E0,5.406494E0,1.8583794E0,3.8504455E0,-9.152591E-1,1.3446236E0,3.3946676E0,1.3762615E0,-2.170527E0,8.8665783E-1,4.4637537E0,2.9592307E0,9.7837895E-1,3.349543E0,5.0634446E0,7.7658504E-1,6.002693E0,1.4577454E0,4.167964E0,1.12108655E-1,-6.58764E-1],"categories":[],"categories_nodes":[],"categories_segments":[],"categories_sizes":[],"default_left":[0,0,0,0,0,0,0,0,0,0,0,0,0,0,0,0,0,0,0,0,0,0,0,0,0,0,0,0,0,0,0,0,0,0,0,0,0,0,0,0,0,0,0,0,0,0,0,0,0,0,0,0,0,0,0,0,0,0,0,0,0,0,0,0,0,0,0,0,0,0,0,0,0,0,0,0,0,0,0,0,0,0,0,0,0,0,0,0,0,0,0,0,0,0,0,0,0,0,0,0,0,0,0,0,0,0,0,0,0,0,0,0,0,0,0,0,0,0,0,0,0,0,0],"id":10,"left_children":[1,3,5,7,9,11,13,15,17,19,21,23,25,27,29,31,33,35,37,39,41,43,45,47,49,51,53,55,57,59,61,63,-1,65,-1,67,69,71,73,75,77,79,81,83,85,87,89,91,93,95,97,99,101,103,105,107,109,111,113,115,117,119,121,-1,-1,-1,-1,-1,-1,-1,-1,-1,-1,-1,-1,-1,-1,-1,-1,-1,-1,-1,-1,-1,-1,-1,-1,-1,-1,-1,-1,-1,-1,-1,-1,-1,-1,-1,-1,-1,-1,-1,-1,-1,-1,-1,-1,-1,-1,-1,-1,-1,-1,-1,-1,-1,-1,-1,-1,-1,-1,-1,-1],"loss_changes":[1.241569E6,2.5710212E5,3.0765838E5,4.3316984E4,1.9209844E4,7.024456E4,4.9300938E4,5.0590625E3,4.718053E3,4.050963E3,1.1145492E4,3.0241312E4,1.0232875E4,1.46394375E4,1.1050594E4,3.1651758E3,1.3868594E3,3.161325E3,4.200622E3,5.5266826E3,5.643004E3,9.63268E3,1.1472586E4,1.5253656E4,2.0415812E4,1.3577125E4,9.13925E3,1.9873258E4,1.31846875E4,4.880125E3,4.234131E3,2.8713057E3,0E0,1.0667656E3,0E0,4.0108328E3,6.4058086E3,1.4020356E3,2.7836938E3,8.973143E3,2.7594148E3,1.0708166E4,7.0941304E3,9.603217E3,7.2303203E3,1.3525477E4,7.935316E3,1.2096453E4,1.075107E4,1.0185469E4,9.034363E3,7.7094336E3,1.6062109E4,7.1694688E3,1.07826875E4,6.5693203E3,7.233332E3,4.6228594E3,6.9113594E3,2.7742344E3,2.8330781E3,2.0944404E3,1.0389935E2,0E0,0E0,0E0,0E0,0E0,0E0,0E0,0E0,0E0,0E0,0E0,0E0,0E0,0E0,0E0,0E0,0E0,0E0,0E0,0E0,0E0,0E0,0E0,0E0,0E0,0E0,0E0,0E0,0E0,0E0,0E0,0E0,0E0,0E0,0E0,0E0,0E0,0E0,0E0,0E0,0E0,0E0,0E0,0E0,0E0,0E0,0E0,0E0,0E0,0E0,0E0,0E0,0E0,0E0,0E0,0E0,0E0,0E0,0E0,0E0],"parents":[2147483647,0,0,1,1,2,2,3,3,4,4,5,5,6,6,7,7,8,8,9,9,10,10,11,11,12,12,13,13,14,14,15,15,16,16,17,17,18,18,19,19,20,20,21,21,22,22,23,23,24,24,25,25,26,26,27,27,28,28,29,29,30,30,31,31,33,33,35,35,36,36,37,37,38,38,39,39,40,40,41,41,42,42,43,43,44,44,45,45,46,46,47,47,48,48,49,49,50,50,51,51,52,52,53,53,54,54,55,55,56,56,57,57,58,58,59,59,60,60,61,61,62,62],"right_children":[2,4,6,8,10,12,14,16,18,20,22,24,26,28,30,32,34,36,38,40,42,44,46,48,50,52,54,56,58,60,62,64,-1,66,-1,68,70,72,74,76,78,80,82,84,86,88,90,92,94,96,98,100,102,104,106,108,110,112,114,116,118,120,122,-1,-1,-1,-1,-1,-1,-1,-1,-1,-1,-1,-1,-1,-1,-1,-1,-1,-1,-1,-1,-1,-1,-1,-1,-1,-1,-1,-1,-1,-1,-1,-1,-1,-1,-1,-1,-1,-1,-1,-1,-1,-1,-1,-1,-1,-1,-1,-1,-1,-1,-1,-1,-1,-1,-1,-1,-1,-1,-1,-1],"split_conditions":[8.264514E0,1.1876588E0,3.1117943E1,1.2707783E0,5.9185147E0,8.647644E0,4.6510548E1,6.034992E-1,2.7642698E0,1.4842334E0,6.1237246E-1,1.40757E1,3.5355338E-1,6.4285713E-1,6.964544E0,2.377988E0,8.100398E-1,2.4146067E-2,3.848976E-2,8.4567076E-1,5.5366797E0,4.532769E0,1.5670071E1,6.1237246E-1,5.179408E0,5E-1,6.1237246E-1,-2.8867513E-1,9.147302E1,1.4576967E2,9.175824E-1,1.1361733E-1,3.073646E0,2.1346202E0,1.9269763E0,2.268109E-1,1.5698684E0,2.6344135E0,1.8258518E1,-1.6666667E-1,2.9605768E0,4.9689264E0,1.1904412E2,1.5025095E0,2.3245528E0,1.9767267E0,1.055505E0,4.884594E0,6.2546577E0,5E-1,-3.5355338E-1,5.082848E-1,1.7972767E1,8.892515E0,1.4831245E1,-5E-1,8.333333E-1,1.7729635E1,6.6497726E0,1.8301271E-1,1.029379E0,3.5355338E-1,9.164073E0,-1.12298325E-1,1.2447498E0,-1.645409E-1,-1.9158584E-1,-1.0279918E-1,5.6508636E-1,1.5137242E-2,1.3823798E0,3.813905E-1,3.1976168E0,1.7435993E-1,1.5925905E0,3.498915E0,-4.912992E-1,1.5809025E-1,-3.3956558E-1,2.8099665E-1,2.2410903E0,1.1372056E-1,4.881168E0,1.0340309E0,4.605883E0,2.3046677E0,3.3528492E-1,4.6781242E-1,1.1894395E0,5.249968E0,1.9003387E-1,4.6395266E-1,8.3003646E-1,8.5635495E-1,1.621376E0,1.8564994E0,1.0827731E0,4.900155E-1,1.1722351E0,3.962833E0,7.468372E-1,1.1530863E0,2.269001E0,5.406494E0,1.8583794E0,3.8504455E0,-9.152591E-1,1.3446236E0,3.3946676E0,1.3762615E0,-2.170527E0,8.8665783E-1,4.4637537E0,2.9592307E0,9.7837895E-1,3.349543E0,5.0634446E0,7.7658504E-1,6.002693E0,1.4577454E0,4.167964E0,1.12108655E-1,-6.58764E-1],"split_indices":[12,39,19,1,14,15,19,32,54,19,80,76,81,65,79,10,22,64,75,75,64,45,64,80,79,70,80,83,92,73,65,20,0,27,0,15,53,1,92,68,79,33,73,40,57,75,76,15,15,81,80,79,39,73,59,80,68,76,79,81,79,80,75,0,0,0,0,0,0,0,0,0,0,0,0,0,0,0,0,0,0,0,0,0,0,0,0,0,0,0,0,0,0,0,0,0,0,0,0,0,0,0,0,0,0,0,0,0,0,0,0,0,0,0,0,0,0,0,0,0,0,0,0],"split_type":[0,0,0,0,0,0,0,0,0,0,0,0,0,0,0,0,0,0,0,0,0,0,0,0,0,0,0,0,0,0,0,0,0,0,0,0,0,0,0,0,0,0,0,0,0,0,0,0,0,0,0,0,0,0,0,0,0,0,0,0,0,0,0,0,0,0,0,0,0,0,0,0,0,0,0,0,0,0,0,0,0,0,0,0,0,0,0,0,0,0,0,0,0,0,0,0,0,0,0,0,0,0,0,0,0,0,0,0,0,0,0,0,0,0,0,0,0,0,0,0,0,0,0],"sum_hessian":[7.6968E4,7.1883E4,5.085E3,6.2332E4,9.551E3,4.651E3,4.34E2,5.22E4,1.0132E4,4.87E3,4.681E3,3.871E3,7.8E2,3.32E2,1.02E2,6.751E3,4.5449E4,9.475E3,6.57E2,3.18E2,4.552E3,3.736E3,9.45E2,2.841E3,1.03E3,4.96E2,2.84E2,1.54E2,1.78E2,8.9E1,1.3E1,6.75E3,1E0,4.5448E4,1E0,2.419E3,7.056E3,5E0,6.52E2,1.3E1,3.05E2,2.323E3,2.229E3,3.5E1,3.701E3,6.69E2,2.76E2,2.325E3,5.16E2,5.13E2,5.17E2,1.55E2,3.41E2,2.52E2,3.2E1,7.8E1,7.6E1,5.7E1,1.21E2,4.7E1,4.2E1,1E1,3E0,6.741E3,9E0,1.3232E4,3.2216E4,2.361E3,5.8E1,7.035E3,2.1E1,2E0,3E0,6.44E2,8E0,6E0,7E0,1.12E2,1.93E2,2.306E3,1.7E1,2.228E3,1E0,3E1,5E0,1.1E1,3.69E3,3.24E2,3.45E2,1E0,2.75E2,1.117E3,1.208E3,3.29E2,1.87E2,3.46E2,1.67E2,2.14E2,3.03E2,4E0,1.51E2,1.55E2,1.86E2,3E0,2.49E2,2.9E1,3E0,1.4E1,6.4E1,7.3E1,3E0,3E0,5.4E1,1.07E2,1.4E1,2.3E1,2.4E1,1E0,4.1E1,5E0,5E0,2E0,1E0],"tree_param":{"num_deleted":"0","num_feature":"124","num_nodes":"123","size_leaf_vector":"1"}},{"base_weights":[1.2470252E-2,-1.0727929E0,1.2843982E1,-1.7795365E0,2.4759352E0,9.712001E0,3.1387386E1,-6.6952544E-1,-2.089287E0,1.4429238E0,3.982897E0,7.3619404E0,1.2999755E1,2.5690044E1,5.167265E1,-8.3053595E-1,1.5772308E0,-2.1824443E0,-1.7862521E0,7.492976E-2,1.936701E0,4.64664E0,2.0183704E0,7.294576E0,4.4956913E0,2.590512E1,1.243643E1,2.8274727E1,1.8098429E1,6.477388E1,4.5714123E1,-1.0322282E0,2.4622403E-1,2.2021805E1,1.361442E0,-2.1834733E0,1.0739096E1,-1.8736938E0,-7.594798E-1,5.9034133E0,-6.28734E-1,2.9129E-1,2.750512E0,6.057467E0,3.530815E0,1.5969862E0,9.468509E0,6.2238274E0,1.0024843E1,3.463499E1,1.270003E1,6.2872458E0,1.369855E1,-9.072891E0,2.8891668E1,1.4174924E1,3.406792E1,3.9356045E1,7.21342E1,3.8665325E1,5.3276188E1,-8.427845E-2,6.7323613E-1,3.4451548E-2,-4.2084897E-1,3.9853766E0,-1.4301122E-2,4.3417457E-1,1.4148925E-2,-1.7480539E-1,4.1383404E-1,1.427924E0,-1.3923255E-1,-1.5320791E-1,3.9525542E-2,9.72442E-1,-8.651607E-2,3.9339218E-1,2.6022012E0,-5.8474053E-2,2.219927E0,-2.8944009E-3,7.6953304E-1,5.3384304E-1,1.9369876E-1,2.1768129E-1,6.3220674E-1,8.9108145E-1,2.2904634E-1,1.8539974E-1,-3.398202E-1,1.1366478E0,-5.8218646E-1,4.304167E-1,8.32673E-1,9.975244E-1,3.3448935E-1,1.358174E0,4.858696E0,1.4078762E-1,2.1559224E0,4.497189E0,4.5589447E-1,9.971785E-1,1.4807208E0,-1.4938469E0,1.3081487E0,1.7786694E-1,2.3680356E0,2.0311403E0,7.899681E-1,3.989451E0,6.3473403E-1,-2.9153654E-1,4.032783E0,6.0941563E0,2.0939064E0,2.3742857E0,4.1021605E0,2.0876415E0,4.6901603E0],"categories":[],"categories_nodes":[],"categories_segments":[],"categories_sizes":[],"default_left":[0,0,0,0,0,0,0,0,0,0,0,0,0,0,0,0,0,0,0,0,0,0,0,0,0,0,0,0,0,0,0,0,0,0,0,0,0,0,0,0,0,0,0,0,0,0,0,0,0,0,0,0,0,0,0,0,0,0,0,0,0,0,0,0,0,0,0,0,0,0,0,0,0,0,0,0,0,0,0,0,0,0,0,0,0,0,0,0,0,0,0,0,0,0,0,0,0,0,0,0,0,0,0,0,0,0,0,0,0,0,0,0,0,0,0,0,0,0,0,0,0],"id":11,"left_children":[1,3,5,7,9,11,13,15,17,19,21,23,25,27,29,31,33,35,37,39,41,43,45,47,-1,49,51,53,55,57,59,61,63,65,67,69,71,73,75,77,79,81,83,85,87,89,91,93,95,97,99,101,103,105,107,109,111,113,115,117,119,-1,-1,-1,-1,-1,-1,-1,-1,-1,-1,-1,-1,-1,-1,-1,-1,-1,-1,-1,-1,-1,-1,-1,-1,-1,-1,-1,-1,-1,-1,-1,-1,-1,-1,-1,-1,-1,-1,-1,-1,-1,-1,-1,-1,-1,-1,-1,-1,-1,-1,-1,-1,-1,-1,-1,-1,-1,-1,-1,-1],"loss_changes":[1.0769752E6,1.7884528E5,3.4996112E5,2.0444266E4,1.843036E4,3.9780344E4,9.9335875E4,4.695033E3,1.3085469E3,4.747157E3,6.2703984E3,9.498594E3,1.53081875E4,1.2870406E4,1.18710625E4,2.6297988E3,3.7993833E3,4.9617188E2,9.8052734E2,7.652622E3,6.9140703E3,5.644289E3,3.8086313E3,8.734203E3,0E0,9.819945E3,1.59170625E4,1.19440625E4,1.0544621E4,7.8248438E3,5.0827188E3,2.0564795E3,1.9430245E3,5.5625693E3,4.1409688E3,4.2825E2,2.972507E2,9.8896484E2,3.5892466E3,5.116631E3,4.8487456E3,5.2237114E3,4.4463164E3,9.754457E3,1.0188936E4,4.869565E3,5.2623433E3,7.5833438E3,1.2031547E4,2.3393758E4,5.7203823E3,1.0052784E4,9.918531E3,2.5020828E3,9.366219E3,6.6455E3,1.3643578E4,7.313412E3,5.995828E3,6.7518438E3,7.487328E3,0E0,0E0,0E0,0E0,0E0,0E0,0E0,0E0,0E0,0E0,0E0,0E0,0E0,0E0,0E0,0E0,0E0,0E0,0E0,0E0,0E0,0E0,0E0,0E0,0E0,0E0,0E0,0E0,0E0,0E0,0E0,0E0,0E0,0E0,0E0,0E0,0E0,0E0,0E0,0E0,0E0,0E0,0E0,0E0,0E0,0E0,0E0,0E0,0E0,0E0,0E0,0E0,0E0,0E0,0E0,0E0,0E0,0E0,0E0,0E0],"parents":[2147483647,0,0,1,1,2,2,3,3,4,4,5,5,6,6,7,7,8,8,9,9,10,10,11,11,12,12,13,13,14,14,15,15,16,16,17,17,18,18,19,19,20,20,21,21,22,22,23,23,25,25,26,26,27,27,28,28,29,29,30,30,31,31,32,32,33,33,34,34,35,35,36,36,37,37,38,38,39,39,40,40,41,41,42,42,43,43,44,44,45,45,46,46,47,47,48,48,49,49,50,50,51,51,52,52,53,53,54,54,55,55,56,56,57,57,58,58,59,59,60,60],"right_children":[2,4,6,8,10,12,14,16,18,20,22,24,26,28,30,32,34,36,38,40,42,44,46,48,-1,50,52,54,56,58,60,62,64,66,68,70,72,74,76,78,80,82,84,86,88,90,92,94,96,98,100,102,104,106,108,110,112,114,116,118,120,-1,-1,-1,-1,-1,-1,-1,-1,-1,-1,-1,-1,-1,-1,-1,-1,-1,-1,-1,-1,-1,-1,-1,-1,-1,-1,-1,-1,-1,-1,-1,-1,-1,-1,-1,-1,-1,-1,-1,-1,-1,-1,-1,-1,-1,-1,-1,-1,-1,-1,-1,-1,-1,-1,-1,-1,-1,-1,-1,-1],"split_conditions":[6.905258E0,2.8824348E0,1.3837055E1,4.690258E-1,4.6737933E0,6.93652E0,2.0102493E1,8.979276E-2,3.0220587E-2,4.945055E-2,8.301442E-1,6.591654E-1,1.6422654E0,5.303037E0,-1.6666667E-1,1.3241072E0,4.2761254E-1,2.1938293E0,8.333333E-1,9.8625414E-2,4.3380558E-1,-3.6602542E-1,6.4755473E0,5.82766E0,4.4956913E0,9.836444E0,1.25009165E1,-4.7252747E-1,1.9181238E1,-1.8301271E-1,2.9962973E1,4.815127E0,5.1145756E1,6.593407E-2,1.9184088E0,1.3671451E0,5.3412765E-1,1.1887023E0,2.6512107E-2,3.1603289E0,7.034217E0,5.8698244E0,1.8131869E-1,2.714817E0,5.943968E-2,6.3488803E0,5.179408E0,6.098788E0,5.652174E-1,4.0875373E0,4.055543E0,5.8173633E0,1.2412293E1,2.310861E1,1.3351659E0,2.3744823E1,6.5384614E-1,1.51281805E1,9.175824E-1,8.745889E0,1.6666667E-1,-8.427845E-2,6.7323613E-1,3.4451548E-2,-4.2084897E-1,3.9853766E0,-1.4301122E-2,4.3417457E-1,1.4148925E-2,-1.7480539E-1,4.1383404E-1,1.427924E0,-1.3923255E-1,-1.5320791E-1,3.9525542E-2,9.72442E-1,-8.651607E-2,3.9339218E-1,2.6022012E0,-5.8474053E-2,2.219927E0,-2.8944009E-3,7.6953304E-1,5.3384304E-1,1.9369876E-1,2.1768129E-1,6.3220674E-1,8.9108145E-1,2.2904634E-1,1.8539974E-1,-3.398202E-1,1.1366478E0,-5.8218646E-1,4.304167E-1,8.32673E-1,9.975244E-1,3.3448935E-1,1.358174E0,4.858696E0,1.4078762E-1,2.1559224E0,4.497189E0,4.5589447E-1,9.971785E-1,1.4807208E0,-1.4938469E0,1.3081487E0,1.7786694E-1,2.3680356E0,2.0311403E0,7.899681E-1,3.989451E0,6.3473403E-1,-2.9153654E-1,4.032783E0,6.0941563E0,2.0939064E0,2.3742857E0,4.1021605E0,2.0876415E0,4.6901603E0],"split_indices":[8,7,28,18,50,28,59,28,98,65,29,3,75,79,68,98,10,38,68,96,98,82,7,98,0,51,73,65,98,81,47,12,73,65,8,1,1,10,79,57,38,12,65,72,79,38,79,28,71,98,79,24,98,96,79,44,65,40,65,75,68,0,0,0,0,0,0,0,0,0,0,0,0,0,0,0,0,0,0,0,0,0,0,0,0,0,0,0,0,0,0,0,0,0,0,0,0,0,0,0,0,0,0,0,0,0,0,0,0,0,0,0,0,0,0,0,0,0,0,0,0],"split_type":[0,0,0,0,0,0,0,0,0,0,0,0,0,0,0,0,0,0,0,0,0,0,0,0,0,0,0,0,0,0,0,0,0,0,0,0,0,0,0,0,0,0,0,0,0,0,0,0,0,0,0,0,0,0,0,0,0,0,0,0,0,0,0,0,0,0,0,0,0,0,0,0,0,0,0,0,0,0,0,0,0,0,0,0,0,0,0,0,0,0,0,0,0,0,0,0,0,0,0,0,0,0,0,0,0,0,0,0,0,0,0,0,0,0,0,0,0,0,0,0,0],"sum_hessian":[7.7336E4,7.1306E4,6.03E3,5.9464E4,1.1842E4,5.16E3,8.7E2,1.2974E4,4.649E4,7.027E3,4.815E3,3.011E3,2.149E3,6.81E2,1.89E2,1.2107E4,8.67E2,3.5554E4,1.0936E4,1.864E3,5.163E3,3.598E3,1.217E3,3.008E3,3E0,8.8E1,2.061E3,5.06E2,1.75E2,5.6E1,1.33E2,1.0197E4,1.91E3,8E0,8.59E2,3.5552E4,2E0,1.0077E4,8.59E2,2E2,1.664E3,1.709E3,3.454E3,1.587E3,2.011E3,1.153E3,6.4E1,2.163E3,8.45E2,5.2E1,3.6E1,3.52E2,1.709E3,8E0,4.98E2,1.42E2,3.3E1,1.4E1,4.2E1,7.2E1,6.1E1,1.0175E4,2.2E1,1.849E3,6.1E1,3E0,5E0,1.93E2,6.66E2,3.5545E4,7E0,1E0,1E0,9.904E3,1.73E2,2E1,8.39E2,1.94E2,6E0,1.659E3,5E0,1.652E3,5.7E1,2.66E2,3.188E3,5.66E2,1.021E3,1.61E2,1.85E3,1.027E3,1.26E2,5E1,1.4E1,1.802E3,3.61E2,5.95E2,2.5E2,3.2E1,2E1,2.1E1,1.5E1,3E0,3.49E2,1.363E3,3.46E2,6E0,2E0,1.3E1,4.85E2,3.8E1,1.04E2,2E1,1.3E1,3E0,1.1E1,3.8E1,4E0,4.4E1,2.8E1,1.1E1,5E1],"tree_param":{"num_deleted":"0","num_feature":"124","num_nodes":"121","size_leaf_vector":"1"}},{"base_weights":[4.277555E-2,-9.4708467E-1,1.2278297E1,-1.5825663E0,2.7072492E0,9.473838E0,3.0941057E1,-4.2252326E-1,-1.8997455E0,1.730125E0,4.013298E0,8.449116E0,1.6857798E1,2.651003E1,4.735584E1,-5.6972253E-1,2.3346548E0,-1.5990868E0,-2.0170004E0,1.6728613E1,1.6476063E0,3.025851E0,7.6965327E0,6.5858335E0,1.0789628E1,6.0093975E1,1.6257223E1,2.929434E1,1.8739697E1,5.8839207E1,4.3001434E1,-1.5792356E0,-3.3579105E-1,8.128156E0,6.214647E-1,-1.9333515E0,-1.315559E0,-2.0183077E0,1.3622923E1,8.474997E0,5.2457386E1,1.3189421E0,4.880943E0,2.16482E0,5.443065E0,5.0066338E0,1.3052204E1,1.2993395E0,7.71503E0,8.791784E0,1.3660528E1,1.1706977E0,5.159821E0,-1.54824095E1,1.676334E1,2.1887236E1,3.598819E1,1.1998042E1,3.5701744E1,3.489374E1,6.996301E1,3.7449425E1,5.476164E1,-1.6106148E-1,4.8572454E-3,-3.311422E-2,2.8645468E-1,4.429264E-1,2.2584152E0,9.6014583E-1,-8.940511E-3,-1.5509537E-1,7.723048E-1,-1.2830165E-1,-7.631211E-2,-1.6279922E-1,-1.3280891E-1,1.8485192E0,-2.1376851E-1,1.8932092E0,-5.013959E-1,7.5331016E0,6.4505994E-1,5.8526855E-2,2.3781015E-1,2.8242064E-1,1.4761804E0,1.6007124E-1,1.0648912E0,4.6384144E0,4.0337622E-1,6.7286845E-4,5.377437E-1,-5.5475567E-2,1.1669788E0,2.9626956E0,7.0464164E-2,6.0394615E-1,3.885596E0,1.2021713E0,5.698064E-1,2.81531E0,1.0220768E0,-1.3994333E0,-3.968204E-1,1.4734408E0,5.067445E-1,6.376484E-1,1.9854041E0,2.2557435E0,3.5507371E0,1.2627539E-1,1.567583E0,3.4508855E0,4.294393E-1,-2.6627399E-2,4.203225E0,6.24227E0,2.2983615E0,2.7620952E0,5.1738157E0,4.728696E0,4.16638E-1],"categories":[],"categories_nodes":[],"categories_segments":[],"categories_sizes":[],"default_left":[0,0,0,0,0,0,0,0,0,0,0,0,0,0,0,0,0,0,0,0,0,0,0,0,0,0,0,0,0,0,0,0,0,0,0,0,0,0,0,0,0,0,0,0,0,0,0,0,0,0,0,0,0,0,0,0,0,0,0,0,0,0,0,0,0,0,0,0,0,0,0,0,0,0,0,0,0,0,0,0,0,0,0,0,0,0,0,0,0,0,0,0,0,0,0,0,0,0,0,0,0,0,0,0,0,0,0,0,0,0,0,0,0,0,0,0,0,0,0,0,0,0,0],"id":12,"left_children":[1,3,5,7,9,11,13,15,17,19,21,23,25,27,29,31,33,35,37,39,41,43,45,47,49,51,53,55,57,59,61,63,65,67,69,71,73,75,77,79,81,83,85,87,89,91,93,95,97,99,101,-1,-1,103,105,107,109,111,113,115,117,119,121,-1,-1,-1,-1,-1,-1,-1,-1,-1,-1,-1,-1,-1,-1,-1,-1,-1,-1,-1,-1,-1,-1,-1,-1,-1,-1,-1,-1,-1,-1,-1,-1,-1,-1,-1,-1,-1,-1,-1,-1,-1,-1,-1,-1,-1,-1,-1,-1,-1,-1,-1,-1,-1,-1,-1,-1,-1,-1,-1,-1],"loss_changes":[9.345074E5,1.6577661E5,3.0196444E5,2.2373719E4,1.3488578E4,3.7856594E4,5.358625E4,5.3009795E3,1.6802656E3,7.461494E3,1.643414E4,1.9169812E4,1.4888609E4,1.23455E4,5.420375E3,2.927106E3,6.565543E3,1.2677031E3,7.297969E2,9.286846E3,6.3898438E3,7.4184414E3,1.3706992E4,1.4668969E4,1.1087281E4,6.577363E2,9.962141E3,2.0879719E4,1.7868008E4,8.479672E3,5.719047E3,1.6600234E3,3.0818857E3,7.7101885E3,4.2736333E3,3.992246E2,7.546875E2,2.0189062E2,5.2534796E2,6.4186255E3,1.0349848E4,5.305993E3,1.0108322E4,4.78624E3,1.9441018E4,5.469366E3,6.7410195E3,6.458357E3,1.3348898E4,1.1914305E4,1.4786781E4,0E0,0E0,1.247793E2,1.0151031E4,8.366016E3,1.36635E4,9.151055E3,9.916445E3,9.341916E3,6.7374844E3,4.4518125E3,7.4470156E3,0E0,0E0,0E0,0E0,0E0,0E0,0E0,0E0,0E0,0E0,0E0,0E0,0E0,0E0,0E0,0E0,0E0,0E0,0E0,0E0,0E0,0E0,0E0,0E0,0E0,0E0,0E0,0E0,0E0,0E0,0E0,0E0,0E0,0E0,0E0,0E0,0E0,0E0,0E0,0E0,0E0,0E0,0E0,0E0,0E0,0E0,0E0,0E0,0E0,0E0,0E0,0E0,0E0,0E0,0E0,0E0,0E0,0E0,0E0,0E0],"parents":[2147483647,0,0,1,1,2,2,3,3,4,4,5,5,6,6,7,7,8,8,9,9,10,10,11,11,12,12,13,13,14,14,15,15,16,16,17,17,18,18,19,19,20,20,21,21,22,22,23,23,24,24,25,25,26,26,27,27,28,28,29,29,30,30,31,31,32,32,33,33,34,34,35,35,36,36,37,37,38,38,39,39,40,40,41,41,42,42,43,43,44,44,45,45,46,46,47,47,48,48,49,49,50,50,53,53,54,54,55,55,56,56,57,57,58,58,59,59,60,60,61,61,62,62],"right_children":[2,4,6,8,10,12,14,16,18,20,22,24,26,28,30,32,34,36,38,40,42,44,46,48,50,52,54,56,58,60,62,64,66,68,70,72,74,76,78,80,82,84,86,88,90,92,94,96,98,100,102,-1,-1,104,106,108,110,112,114,116,118,120,122,-1,-1,-1,-1,-1,-1,-1,-1,-1,-1,-1,-1,-1,-1,-1,-1,-1,-1,-1,-1,-1,-1,-1,-1,-1,-1,-1,-1,-1,-1,-1,-1,-1,-1,-1,-1,-1,-1,-1,-1,-1,-1,-1,-1,-1,-1,-1,-1,-1,-1,-1,-1,-1,-1,-1,-1,-1,-1,-1,-1],"split_conditions":[4.7272344E0,3.153243E0,2.0110332E1,3.368251E-1,1.3691957E0,8.1462E0,2.5665148E1,2.819323E-1,1.9889733E0,1.4743296E-2,5E-1,5.989011E-1,5.082848E-1,5.303037E0,-5E-1,-2.3076923E-1,3.774588E-1,-4.5645665E-2,7.7966183E-1,1.3436192E0,6.9895644E0,2.4738812E0,6.1538464E-1,-6.1237246E-1,9.172473E0,4.2063375E0,1.0383026E1,6.252301E0,1.9181238E1,3.3855946E0,7.8571427E-1,3.9130434E-1,4.6114677E-1,1.6167556E-1,4.5754135E-1,6.786664E-1,5.564294E-1,2.4146067E-2,6.72884E-1,3.3862653E0,9.462584E-3,6.1237246E-1,2.4826941E-1,2.533591E0,2.8143737E-1,1.4353715E0,7.1985906E-1,4.3138504E0,2.2352709E1,1.7290272E1,9.35005E0,1.1706977E0,5.159821E0,2.2781725E0,8.733757E1,6.918616E1,1.6432228E1,-3.6602542E-1,8.076923E-1,3.5355338E-1,-3.6602542E-1,2.861473E1,8.1383E0,-1.6106148E-1,4.8572454E-3,-3.311422E-2,2.8645468E-1,4.429264E-1,2.2584152E0,9.6014583E-1,-8.940511E-3,-1.5509537E-1,7.723048E-1,-1.2830165E-1,-7.631211E-2,-1.6279922E-1,-1.3280891E-1,1.8485192E0,-2.1376851E-1,1.8932092E0,-5.013959E-1,7.5331016E0,6.4505994E-1,5.8526855E-2,2.3781015E-1,2.8242064E-1,1.4761804E0,1.6007124E-1,1.0648912E0,4.6384144E0,4.0337622E-1,6.7286845E-4,5.377437E-1,-5.5475567E-2,1.1669788E0,2.9626956E0,7.0464164E-2,6.0394615E-1,3.885596E0,1.2021713E0,5.698064E-1,2.81531E0,1.0220768E0,-1.3994333E0,-3.968204E-1,1.4734408E0,5.067445E-1,6.376484E-1,1.9854041E0,2.2557435E0,3.5507371E0,1.2627539E-1,1.567583E0,3.4508855E0,4.294393E-1,-2.6627399E-2,4.203225E0,6.24227E0,2.2983615E0,2.7620952E0,5.1738157E0,4.728696E0,4.16638E-1],"split_indices":[59,7,12,32,79,15,47,59,27,74,80,85,79,79,88,69,84,79,22,23,12,15,69,80,8,10,50,95,78,79,85,91,36,29,72,58,38,84,2,7,5,80,29,29,74,52,95,47,50,84,45,0,0,95,84,93,52,82,69,80,82,95,79,0,0,0,0,0,0,0,0,0,0,0,0,0,0,0,0,0,0,0,0,0,0,0,0,0,0,0,0,0,0,0,0,0,0,0,0,0,0,0,0,0,0,0,0,0,0,0,0,0,0,0,0,0,0,0,0,0,0,0,0],"split_type":[0,0,0,0,0,0,0,0,0,0,0,0,0,0,0,0,0,0,0,0,0,0,0,0,0,0,0,0,0,0,0,0,0,0,0,0,0,0,0,0,0,0,0,0,0,0,0,0,0,0,0,0,0,0,0,0,0,0,0,0,0,0,0,0,0,0,0,0,0,0,0,0,0,0,0,0,0,0,0,0,0,0,0,0,0,0,0,0,0,0,0,0,0,0,0,0,0,0,0,0,0,0,0,0,0,0,0,0,0,0,0,0,0,0,0,0,0,0,0,0,0,0,0],"sum_hessian":[7.7157E4,7.1383E4,5.774E3,6.0809E4,1.0574E4,5.021E3,7.53E2,1.3057E4,4.7752E4,6.05E3,4.524E3,4.411E3,6.1E2,5.95E2,1.58E2,1.2396E4,6.61E2,1.3402E4,3.435E4,3.2E1,6.018E3,3.569E3,9.55E2,2.458E3,1.953E3,7E0,6.03E2,4.36E2,1.59E2,4E1,1.18E2,2.331E3,1.0065E4,1.5E2,5.11E2,6.148E3,7.254E3,3.4348E4,2E0,2.7E1,5E0,5.464E3,5.54E2,2.633E3,9.36E2,6.37E2,3.18E2,4.33E2,2.025E3,1.154E3,7.99E2,1E0,6E0,9E0,5.94E2,2.09E2,2.27E2,1.15E2,4.4E1,1.4E1,2.6E1,8.3E1,3.5E1,1.843E3,4.88E2,9.869E3,1.96E2,1.34E2,1.6E1,3E1,4.81E2,6.146E3,2E0,4.035E3,3.219E3,3.2815E4,1.533E3,1E0,1E0,1.3E1,1.4E1,2E0,3E0,4.033E3,1.431E3,5.05E2,4.9E1,2.596E3,3.7E1,6E0,9.3E2,1.63E2,4.74E2,3.2E1,2.86E2,4E0,4.29E2,2.018E3,7E0,2.42E2,9.12E2,3E1,7.69E2,7E0,2E0,5.12E2,8.2E1,3.7E1,1.72E2,1.2E2,1.07E2,4.9E1,6.6E1,3.5E1,9E0,5E0,9E0,2.1E1,5E0,7.7E1,6E0,3.2E1,3E0],"tree_param":{"num_deleted":"0","num_feature":"124","num_nodes":"123","size_leaf_vector":"1"}},{"base_weights":[1.4768979E-2,-9.402231E-1,1.0185023E1,-1.5543628E0,1.7547354E0,7.538186E0,2.6173018E1,-1.7222949E0,-3.8259414E-1,1.0360209E0,3.2889574E0,5.876188E0,1.0454684E1,2.2848152E1,4.3901016E1,-1.7243547E0,1.9399536E1,-4.5554775E-1,4.5721684E0,8.4739244E-1,4.2497435E0,2.9792523E0,8.514739E0,4.836704E0,8.516788E0,9.119383E0,1.6076338E1,1.7452503E1,2.5673002E1,3.8117676E1,5.5896305E1,-1.3103486E0,-1.812745E0,3.797477E0,5.151877E-1,1.287391E-1,-9.468891E-1,2.7015142E0,2.6916159E1,8.220983E-1,2.212862E1,3.7758446E1,3.4825714E0,2.1255574E0,4.829843E0,-2.4771473E-1,1.1886379E1,2.8524462E1,4.6797204E0,6.902358E0,1.4794714E1,1.8982964E1,8.228425E0,1.901357E1,6.699425E0,2.1404093E1,6.524169E0,-2.069647E0,2.6219961E1,3.988563E1,8.173474E0,6.0595005E1,1.447246E1,-1.0675383E-1,4.1456035E-1,-1.484068E-1,-1.23007126E-1,3.9658713E-1,-2.0943807E-1,1.08776405E-1,-2.2142284E-2,-1.5056413E-1,-3.377586E-2,2.3057585E0,1.0267105E-1,3.8771887E0,3.4351757E-1,7.234004E-2,-2.4712862E-1,3.517306E0,1.9394074E-2,-5.398088E-1,4.423333E0,9.675454E-1,1.3842878E-1,1.0796411E-2,2.9822055E-1,9.7665435E-1,3.239399E-1,-1.8773566E-1,2.6298535E0,-1.5301847E-1,1.2199006E0,2.6924494E-1,3.355323E0,3.5066953E-1,1.1889646E0,6.8187094E-1,2.443217E-1,2.420943E0,9.378156E-1,9.6658283E-1,3.245883E0,-5.2987117E-1,7.051945E-1,1.6231347E0,4.253613E-1,4.5632437E-2,1.1652809E0,2.4251087E0,1.3272003E0,1.357818E0,-1.3169722E-1,4.4618157E-1,-9.889121E-1,9.9334425E-1,2.1995106E0,6.173037E-1,3.2949028E0,-8.354035E-1,1.4166712E0,2.951331E0,5.2886972E0,2.3656127E0,-8.385569E-1],"categories":[],"categories_nodes":[],"categories_segments":[],"categories_sizes":[],"default_left":[0,0,0,0,0,0,0,0,0,0,0,0,0,0,0,0,0,0,0,0,0,0,0,0,0,0,0,0,0,0,0,0,0,0,0,0,0,0,0,0,0,0,0,0,0,0,0,0,0,0,0,0,0,0,0,0,0,0,0,0,0,0,0,0,0,0,0,0,0,0,0,0,0,0,0,0,0,0,0,0,0,0,0,0,0,0,0,0,0,0,0,0,0,0,0,0,0,0,0,0,0,0,0,0,0,0,0,0,0,0,0,0,0,0,0,0,0,0,0,0,0,0,0,0,0],"id":13,"left_children":[1,3,5,7,9,11,13,15,17,19,21,23,25,27,29,31,33,35,37,39,41,43,45,47,49,51,53,55,57,59,61,63,65,-1,67,69,71,73,75,77,79,81,83,85,87,89,91,93,95,97,99,101,103,105,107,109,111,113,115,117,119,121,123,-1,-1,-1,-1,-1,-1,-1,-1,-1,-1,-1,-1,-1,-1,-1,-1,-1,-1,-1,-1,-1,-1,-1,-1,-1,-1,-1,-1,-1,-1,-1,-1,-1,-1,-1,-1,-1,-1,-1,-1,-1,-1,-1,-1,-1,-1,-1,-1,-1,-1,-1,-1,-1,-1,-1,-1,-1,-1,-1,-1,-1,-1],"loss_changes":[7.523117E5,1.17197336E5,2.811725E5,1.1347125E4,1.4487848E4,2.7596781E4,5.4639312E4,2.2278906E3,2.615495E3,5.422491E3,6.759176E3,9.941859E3,1.5392047E4,1.169975E4,8.1365312E3,1.8432656E3,2.6258618E3,2.0458845E3,4.3160635E3,4.5335923E3,1.2619142E4,6.2443203E3,6.916205E3,9.579449E3,1.0296664E4,1.4563766E4,1.0779336E4,1.1822406E4,7.9599688E3,5.126828E3,8.0764062E3,1.3943789E3,4.813125E2,0E0,6.865015E1,1.6257014E3,1.898594E3,3.5931377E3,3.6917222E3,2.7169355E3,4.768784E3,8.956768E3,7.3126187E3,8.645803E3,7.144162E3,4.6654707E3,7.8703984E3,5.5973447E3,7.76841E3,5.076871E3,9.575918E3,2.0070344E4,1.3455398E4,5.1510312E3,4.62028E3,8.20425E3,6.4305947E3,9.3464496E2,8.644094E3,3.7407812E3,1.4274357E3,2.9195781E3,2.5704795E3,0E0,0E0,0E0,0E0,0E0,0E0,0E0,0E0,0E0,0E0,0E0,0E0,0E0,0E0,0E0,0E0,0E0,0E0,0E0,0E0,0E0,0E0,0E0,0E0,0E0,0E0,0E0,0E0,0E0,0E0,0E0,0E0,0E0,0E0,0E0,0E0,0E0,0E0,0E0,0E0,0E0,0E0,0E0,0E0,0E0,0E0,0E0,0E0,0E0,0E0,0E0,0E0,0E0,0E0,0E0,0E0,0E0,0E0,0E0,0E0,0E0,0E0],"parents":[2147483647,0,0,1,1,2,2,3,3,4,4,5,5,6,6,7,7,8,8,9,9,10,10,11,11,12,12,13,13,14,14,15,15,16,16,17,17,18,18,19,19,20,20,21,21,22,22,23,23,24,24,25,25,26,26,27,27,28,28,29,29,30,30,31,31,32,32,34,34,35,35,36,36,37,37,38,38,39,39,40,40,41,41,42,42,43,43,44,44,45,45,46,46,47,47,48,48,49,49,50,50,51,51,52,52,53,53,54,54,55,55,56,56,57,57,58,58,59,59,60,60,61,61,62,62],"right_children":[2,4,6,8,10,12,14,16,18,20,22,24,26,28,30,32,34,36,38,40,42,44,46,48,50,52,54,56,58,60,62,64,66,-1,68,70,72,74,76,78,80,82,84,86,88,90,92,94,96,98,100,102,104,106,108,110,112,114,116,118,120,122,124,-1,-1,-1,-1,-1,-1,-1,-1,-1,-1,-1,-1,-1,-1,-1,-1,-1,-1,-1,-1,-1,-1,-1,-1,-1,-1,-1,-1,-1,-1,-1,-1,-1,-1,-1,-1,-1,-1,-1,-1,-1,-1,-1,-1,-1,-1,-1,-1,-1,-1,-1,-1,-1,-1,-1,-1,-1,-1,-1,-1,-1,-1],"split_conditions":[7.507464E0,5.0448215E-1,2.0489254E1,1.0173055E0,4.123684E0,4.405441E0,1.51281805E1,8.5203755E-1,5.0354624E0,4.518175E0,1.1873299E1,6.2109704E0,1.0829293E1,1.2412293E1,1.4576967E2,1.0765414E0,7.767224E-1,-2.173913E-1,1.2479451E0,3.368251E-1,3.010027E0,5E-1,-5E-1,2.8143737E-1,5E-1,1.5056406E0,0E0,5.766997E0,1.3079001E0,9.3406594E-1,0E0,6.2357503E-1,4.0225065E-3,3.797477E0,9.840076E-2,-2.8867513E-1,4.347826E-2,2.723514E0,1.3962556E0,7.737461E1,2.4146067E-2,1.2857109E0,4.8515015E0,1.3043478E-1,3.7792448E-2,5.057136E1,1.6281842E0,-1.6666667E-1,1.0754263E1,6.5217394E-1,2.4538E0,7.364514E0,9.3707485E0,9.196926E0,9.175824E-1,-1.6666667E-1,9.141492E0,2.173913E-1,9.019734E0,3.591053E1,1.00227356E2,1.4576967E2,6.1237246E-1,-1.0675383E-1,4.1456035E-1,-1.484068E-1,-1.23007126E-1,3.9658713E-1,-2.0943807E-1,1.08776405E-1,-2.2142284E-2,-1.5056413E-1,-3.377586E-2,2.3057585E0,1.0267105E-1,3.8771887E0,3.4351757E-1,7.234004E-2,-2.4712862E-1,3.517306E0,1.9394074E-2,-5.398088E-1,4.423333E0,9.675454E-1,1.3842878E-1,1.0796411E-2,